tree
version=v4
num_class=1
num_tree_per_iteration=1
label_index=0
max_feature_idx=8
objective=regression
feature_names=visit_month visit_gap months_since_first prot_O00391 prot_P05067 prot_Q9Y6K9 prot_O00391_delta prot_P05067_delta prot_Q9Y6K9_delta
feature_infos=[0:108] [0:36] [0:108] [1641.760009765625:21361.80078125] [256056:2240240] none [-9406.4404296875:6578.1396484375] [-722250:640626] none
tree_sizes=1636 1807 1811 1810 1893 1887 1895 1974 1979 1891 2060 2153 2065 2143 2155 1985 1812 1896 1907 1894 1896 2147 1989 1979 2149 1886 1821 1819 1991 1896 1994 1915 2082 1991 1997 1911 1902 2002 1905 1899

Tree=0
num_leaves=19
num_cat=0
split_feature=0 1 0 3 3 3 3 3 1 3 0 0 0 0 0 0 0 0
split_gain=384.804 327.573 317.295 109.576 80.3571 51.3502 43.8591 38.3041 31.7415 49.8861 12.2262 12.0933 7.61608 6.38437 0.772886 2.01667 0.237877 0.198177
threshold=15.000000000000002 9.0000000000000018 57.000000000000007 11735.899902343752 9376.2197265625018 13725.450195312502 11218.000000000002 10735.550292968752 4.5000000000000009 11455.299804687502 45.000000000000007 39.000000000000007 27.000000000000004 33.000000000000007 4.5000000000000009 1.0000000180025095e-35 21.000000000000004 78.000000000000014
decision_type=2 2 2 10 10 10 8 8 2 10 2 2 2 2 2 2 2 2
left_child=5 3 4 7 -3 6 -1 -2 9 14 11 12 16 -14 15 -8 -9 -4
right_child=1 2 17 -5 -6 -7 8 10 -10 -11 -12 -13 13 -15 -16 -17 -18 -19
leaf_value=6.3154616551031744 6.425085713079997 6.3240142880328118 6.4285597396732923 6.3824602315131296 6.1990142894898135 6.2842415621899939 6.3431809552624108 6.4671961027677956 6.4109587303910933 6.4265142847810468 6.4995912077295905 6.4507999992200302 6.5039055877087275 6.4725142840657917 6.3440614562478022 6.3615142844234187 6.4734708056183337 6.4332534145731364
leaf_weight=38 35 36 44 37 20 22 30 44 45 25 65 42 46 25 53 30 23 46
leaf_count=38 35 36 44 37 20 22 30 44 45 25 65 42 46 25 53 30 23 46
internal_value=6.40804 6.43479 6.37282 6.46333 6.27937 6.35709 6.36434 6.47401 6.37449 6.3626 6.481 6.47429 6.48144 6.49285 6.34846 6.35235 6.46935 6.43096
internal_weight=706 463 146 317 56 243 221 280 183 138 245 180 138 71 113 60 67 90
internal_count=706 463 146 317 56 243 221 280 183 138 245 180 138 71 113 60 67 90
is_linear=0
shrinkage=1


Tree=1
num_leaves=20
num_cat=0
split_feature=2 1 1 1 2 4 4 3 3 3 4 4 2 2 1 2 2 2 2
split_gain=350.165 380.443 212.972 174.535 153.528 114.44 83.5879 92.3597 66.3487 63.2077 60.2852 28.2401 29.8695 24.0918 9.8377 15.841 9.10876 0.516376 0.000199334
threshold=27.000000000000004 9.0000000000000018 4.5000000000000009 9.0000000000000018 66.000000000000014 799456.00000000012 1134670.0000000002 11455.299804687502 8632.3051757812518 7519.1098632812509 1199385.0000000002 780792.00000000012 45.000000000000007 39.000000000000007 1.0000000180025095e-35 4.5000000000000009 78.000000000000014 15.000000000000002 21.000000000000004
decision_type=2 2 2 2 2 10 8 10 10 10 8 8 2 2 2 2 2 2 2
left_child=1 2 6 5 10 11 7 9 17 -1 -5 -2 13 -13 -8 -16 -6 -4 -19
right_child=3 -3 8 4 16 -7 14 -9 -10 -11 -12 12 -14 -15 15 -17 -18 18 -20
leaf_value=-0.0063603379509665761 0.039138170159780064 -0.18107675566123083 0.049452065726121271 -0.12631434897581736 0.06257201355695724 -0.029321511963318139 -0.1053844956488445 0.062790445210757093 -0.022575949399899216 -0.11577308184721254 -0.021602497941681318 0.091292446750705525 0.11675609283977084 0.041745717042968394 -0.043075710435708368 -0.090415644922921826 0.025076460579167244 0.057322015816515137 0.057509248597281321
leaf_weight=33 39 39 30 27 25 29 29 27 39 22 28 59 54 42 30 43 46 44 21
leaf_count=33 39 39 30 27 25 29 29 27 39 22 28 59 54 42 30 43 46 44 21
internal_value=0.00112754 -0.0336887 -0.0156129 0.0367419 -0.0102979 0.0633205 -0.0505318 -0.0129458 0.0323355 -0.0501254 -0.0730065 0.077169 0.0867381 0.0706889 -0.080748 -0.0709609 0.0382791 0.0548782 0.0573825
internal_weight=706 357 318 349 126 223 184 82 134 55 55 194 155 101 102 73 71 95 65
internal_count=706 357 318 349 126 223 184 82 134 55 55 194 155 101 102 73 71 95 65
is_linear=0
shrinkage=0.05


Tree=2
num_leaves=20
num_cat=0
split_feature=2 1 1 1 2 4 4 3 3 3 4 4 2 2 1 2 2 2 2
split_gain=316.024 343.35 192.207 157.518 138.559 103.282 75.4381 83.3547 59.8797 57.0501 54.4074 25.4867 26.9572 21.7429 8.87852 14.2965 8.22065 0.466029 0.000179892
threshold=27.000000000000004 9.0000000000000018 4.5000000000000009 9.0000000000000018 66.000000000000014 799456.00000000012 1134670.0000000002 11455.299804687502 8632.3051757812518 8406.5800781250018 1199385.0000000002 780792.00000000012 45.000000000000007 39.000000000000007 1.0000000180025095e-35 4.5000000000000009 78.000000000000014 15.000000000000002 21.000000000000004
decision_type=2 2 2 2 2 10 8 10 10 10 8 8 2 2 2 2 2 2 2
left_child=1 2 6 5 10 11 7 9 17 -1 -5 -2 13 -13 -8 -16 -6 -4 -19
right_child=3 -3 8 4 16 -7 14 -9 -10 -11 -12 12 -14 -15 15 -17 -18 18 -20
leaf_value=-0.0091247253758566724 0.03718126129645568 -0.17202292017829723 0.046979461610317234 -0.11999863750404782 0.059443411290645599 -0.027855439843802617 -0.10011526392451649 0.059650927671679746 -0.021447155605524015 -0.11498442713171245 -0.020522373488971166 0.08672782733278761 0.1109182894229889 0.039658429934864958 -0.040921926895777387 -0.085894866045131246 0.023822637258664424 0.054455915093421937 0.054633782449222748
leaf_weight=35 39 39 30 27 25 29 29 27 39 20 28 59 54 42 30 43 46 44 21
leaf_count=35 39 39 30 27 25 29 29 27 39 20 28 59 54 42 30 43 46 44 21
internal_value=0.00107117 -0.0320043 -0.0148322 0.0349048 -0.00978304 0.0601545 -0.0480052 -0.0122985 0.0307188 -0.0476192 -0.0693562 0.0733106 0.0824012 0.0671544 -0.0767106 -0.0674128 0.0363652 0.0521342 0.0545134
internal_weight=706 357 318 349 126 223 184 82 134 55 55 194 155 101 102 73 71 95 65
internal_count=706 357 318 349 126 223 184 82 134 55 55 194 155 101 102 73 71 95 65
is_linear=0
shrinkage=0.05


Tree=3
num_leaves=20
num_cat=0
split_feature=2 1 1 1 2 4 4 3 3 3 4 4 2 2 1 2 2 2 2
split_gain=285.211 309.874 173.467 142.16 125.05 93.2119 68.0829 75.2276 54.0414 51.8856 49.1027 23.0018 24.3289 19.623 8.01287 12.9026 7.41914 0.42059 0.000162361
threshold=27.000000000000004 9.0000000000000018 4.5000000000000009 9.0000000000000018 66.000000000000014 799456.00000000012 1134670.0000000002 11455.299804687502 8632.3051757812518 7519.1098632812509 1199385.0000000002 780792.00000000012 45.000000000000007 39.000000000000007 1.0000000180025095e-35 4.5000000000000009 78.000000000000014 15.000000000000002 21.000000000000004
decision_type=2 2 2 2 2 10 8 10 10 10 8 8 2 2 2 2 2 2 2
left_child=1 2 6 5 10 11 7 9 17 -1 -5 -2 13 -13 -8 -16 -6 -4 -19
right_child=3 -3 8 4 16 -7 14 -9 -10 -11 -12 12 -14 -15 15 -17 -18 18 -20
leaf_value=-0.0055860826463410354 0.035322197584005503 -0.16342177391291046 0.04463049411773682 -0.11399869797406373 0.056471239686012267 -0.026462661089568303 -0.095109502739947421 0.056668379737271207 -0.020374797017146382 -0.10471638275141067 -0.019496255634086475 0.082391433064210221 0.10537237789895799 0.037675509566352489 -0.038875833749771119 -0.081600118099257005 0.022631504419057268 0.05173311578956518 0.051902094341459731
leaf_weight=33 39 39 30 27 25 29 29 27 39 22 28 59 54 42 30 43 46 44 21
leaf_count=33 39 39 30 27 25 29 29 27 39 22 28 59 54 42 30 43 46 44 21
internal_value=0.00101761 -0.0304041 -0.0140906 0.0331596 -0.00929389 0.0571467 -0.0456049 -0.0116836 0.0291828 -0.0452382 -0.0658884 0.0696451 0.0782811 0.0637967 -0.0728751 -0.0640422 0.0345469 0.0495275 0.0517877
internal_weight=706 357 318 349 126 223 184 82 134 55 55 194 155 101 102 73 71 95 65
internal_count=706 357 318 349 126 223 184 82 134 55 55 194 155 101 102 73 71 95 65
is_linear=0
shrinkage=0.05


Tree=4
num_leaves=21
num_cat=0
split_feature=4 0 3 0 4 3 3 4 4 4 0 0 0 4 0 0 0 0 0 0
split_gain=261.477 186.467 80.6703 76.8563 76.0467 74.0223 58.08 53.0313 40.3796 86.2588 23.0009 8.3584 12.8255 6.69513 6.05572 1.83329 1.46173 3.89883 0.671388 0.313016
threshold=1134670.0000000002 15.000000000000002 11455.299804687502 33.000000000000007 501453.00000000006 8701.3950195312518 13524.449707031252 483284.00000000006 711321.00000000012 780792.00000000012 66.000000000000014 33.000000000000007 27.000000000000004 718708.00000000012 57.000000000000007 7.5000000000000009 51.000000000000007 45.000000000000007 4.5000000000000009 39.000000000000007
decision_type=10 2 10 2 10 10 8 10 10 10 2 2 2 10 2 2 2 2 2 2
left_child=1 2 5 -2 10 7 8 15 -6 -10 11 12 -3 -9 16 18 17 19 -1 -13
right_child=3 4 -4 -5 6 -7 -8 13 9 -11 -12 14 -14 -15 -16 -17 -18 -19 -20 -21
leaf_value=-0.043608595204094186 -0.14909930185360068 0.044448181762108734 0.045889120455831295 -0.03223583089808623 0.075483331667340337 -0.12010160474479199 -0.054867716592091775 -0.00026834983201253984 -0.086459970250725757 0.043048881159888377 0.013497005638323331 0.042692083727430413 0.079175436966445134 0.039201252704316923 0.063165093421936033 -0.052679327389468324 0.045464879178231762 0.013419668376445771 -0.033676122625668846 0.035791732157979698
leaf_weight=46 34 63 32 24 23 25 39 21 20 36 57 27 46 22 25 46 31 20 27 42
leaf_count=46 34 63 32 24 23 25 39 21 20 36 57 27 46 22 25 46 31 20 27 42
internal_value=0.000966728 0.0100703 -0.0274694 -0.100742 0.0292339 -0.0400227 -0.00494207 -0.0276649 0.0197048 -0.00320428 0.042201 0.0486424 0.0591037 0.0199254 0.0407784 -0.0448613 0.0361145 0.0328577 -0.0399349 0.0384919
internal_weight=706 648 219 58 429 187 118 162 79 56 311 254 109 43 145 119 120 89 73 69
internal_count=706 648 219 58 429 187 118 162 79 56 311 254 109 43 145 119 120 89 73 69
is_linear=0
shrinkage=0.05


Tree=5
num_leaves=21
num_cat=0
split_feature=0 1 1 4 0 4 4 3 3 3 0 4 4 1 4 0 4 0 0 0
split_gain=350.639 203.83 137.85 100.99 94.9458 88.0561 83.7858 128.216 180.396 78.5459 43.7046 138.263 42.9537 37.1858 24.2053 16.6168 8.50302 1.70078 0.980759 0.0208593
threshold=27.000000000000004 9.0000000000000018 9.0000000000000018 1214865.0000000002 66.000000000000014 1015980.0000000001 871969.00000000012 11455.299804687502 8928.2749023437518 11218.000000000002 45.000000000000007 774565.00000000012 994958.00000000012 4.5000000000000009 607760.00000000012 15.000000000000002 758493.00000000012 39.000000000000007 7.5000000000000009 78.000000000000014
decision_type=2 2 2 10 2 10 10 10 10 10 2 8 8 2 10 2 8 2 2 2
left_child=2 5 3 6 14 10 7 8 13 -8 12 -12 -2 16 -3 -15 -1 -14 -18 -6
right_child=1 4 -4 -5 19 -7 9 -9 -10 -11 11 -13 17 15 -16 -17 18 -19 -20 -21
leaf_value=-0.072263598814606672 0.1164590638279915 -0.086969735281808042 -0.1321335744811222 -0.13185993719846009 0.027239365761096663 -0.033388284146785734 0.11764725899057729 0.091025518519537787 -0.1708466148570828 -0.014763344544917345 -0.0079937569797039042 0.14412938256006122 0.037564646298515386 0.028674841739914636 -0.019068884743111476 -0.01549773136774699 -0.032249491526683986 0.050966432727873323 -0.04308072852365899 0.025445359529450887
leaf_weight=20 25 35 32 20 26 20 21 21 23 24 20 59 58 33 21 60 57 40 33 43
leaf_count=20 25 35 32 20 26 20 21 21 23 24 20 59 58 33 21 60 57 40 33 43
internal_value=0.0024703 0.0379333 -0.033302 -0.0231654 -0.0131361 0.0666886 -0.0157206 -0.0271526 -0.0381337 0.0470283 0.0765972 0.105617 0.0579584 -0.0230973 -0.0615069 0.000176407 -0.0427742 0.0430348 -0.0362209 0.0261214
internal_weight=691 347 344 312 125 222 292 247 226 45 202 79 123 203 56 93 110 98 90 69
internal_count=691 347 344 312 125 222 292 247 226 45 202 79 123 203 56 93 110 98 90 69
is_linear=0
shrinkage=0.05


Tree=6
num_leaves=21
num_cat=0
split_feature=2 1 1 4 2 4 4 3 3 2 1 4 4 4 2 2 2 2 2 2
split_gain=316.452 183.957 124.409 91.1432 85.6886 79.4706 75.6959 74.8482 39.8585 48.7604 38.9554 26.3365 22.2471 21.8452 11.4222 0.653428 1.99419 0.341847 0.294069 0.0188257
threshold=27.000000000000004 9.0000000000000018 9.0000000000000018 1214865.0000000002 66.000000000000014 1015980.0000000001 683128.50000000012 8632.3051757812518 10148.900390625002 45.000000000000007 4.5000000000000009 871969.00000000012 399961.00000000006 607760.00000000012 10.500000000000002 39.000000000000007 33.000000000000007 7.5000000000000009 51.000000000000007 78.000000000000014
decision_type=2 2 2 10 2 10 10 10 10 2 2 10 10 10 2 2 2 2 2 2
left_child=2 5 3 6 13 8 10 -8 9 15 12 -9 17 -3 -12 16 -2 -1 -11 -6
right_child=1 4 -4 -5 19 -7 7 11 -10 18 14 -13 -14 -15 -16 -17 -18 -19 -20 -21
leaf_value=-0.041165124301640495 0.047410547151798155 -0.082621248109000067 -0.12552689563017339 -0.12526694127358495 0.025877400201100572 -0.031718871295452117 0.10653082600661688 -0.036424494137366613 0.12701478482320391 0.10284108538990436 0.025029983974638438 0.027418234625032973 -0.090702955479975103 -0.018115443913709551 -0.016879385192361145 0.048418109156191352 0.030100144339459286 -0.034682654973232384 0.09577744400310445 0.024173089549985045
leaf_weight=53 41 35 32 20 26 20 21 30 29 23 21 35 27 21 72 40 28 33 41 43
leaf_count=53 41 35 32 20 26 20 21 30 29 23 21 35 27 21 72 40 28 33 41 43
internal_value=0.00234678 0.0360367 -0.0316369 -0.0220072 -0.0124793 0.0633542 -0.0149346 0.0244657 0.0727674 0.0636739 -0.0313832 -0.00204764 -0.0511085 -0.0584316 -0.00741598 0.0433336 0.040386 -0.0386777 0.0983159 0.0248153
internal_weight=691 347 344 312 125 222 292 86 202 173 206 65 113 56 93 109 69 86 64 69
internal_count=691 347 344 312 125 222 292 86 202 173 206 65 113 56 93 109 69 86 64 69
is_linear=0
shrinkage=0.05


Tree=7
num_leaves=22
num_cat=0
split_feature=0 1 1 4 0 0 4 3 3 4 3 0 4 1 0 4 0 0 0 0 0
split_gain=285.598 166.021 112.279 82.2567 77.3339 72.1072 71.7222 55.4051 73.0075 43.7396 35.9723 44.0062 19.7153 6.19653 26.0963 1.97236 1.95185 0.589719 1.79976 0.265397 0.0169902
threshold=27.000000000000004 9.0000000000000018 9.0000000000000018 1214865.0000000002 66.000000000000014 21.000000000000004 1015980.0000000001 11455.299804687502 8928.2749023437518 495109.00000000006 10148.900390625002 45.000000000000007 607760.00000000012 4.5000000000000009 10.500000000000002 730879.50000000012 7.5000000000000009 39.000000000000007 33.000000000000007 51.000000000000007 78.000000000000014
decision_type=2 2 2 10 2 2 10 10 10 10 10 2 10 2 2 10 2 2 2 2 2
left_child=2 6 3 5 12 7 10 8 9 13 11 17 -3 16 -15 -7 -1 18 -2 -13 -6
right_child=1 4 -4 -5 20 15 -8 -9 -10 -11 -12 19 -14 14 -16 -17 -18 -19 -20 -21 -22
leaf_value=-0.048228411886252855 0.045040021963962701 -0.078490186759403779 -0.11925055100582541 -0.11900359287858009 0.024583526758047251 0.037073917612433435 -0.030132922120392328 0.037385527230799201 -0.11347168806195258 0.027051318395468926 0.12066404202888753 0.097699026228941013 -0.017209669131608235 0.023778481994356431 -0.043048741295933723 0.059279573857784276 -0.032948520328059339 0.045997205413877966 0.028595142172915596 0.090988571196794515 0.022964430964270303
leaf_weight=57 41 35 32 20 26 20 20 32 25 36 29 23 21 21 48 20 33 40 28 41 43
leaf_count=57 41 35 32 20 26 20 20 32 25 36 29 23 21 21 48 20 33 40 28 41 43
internal_value=0.00222944 0.0342348 -0.0300551 -0.0209068 -0.0118553 -0.0141878 0.0601865 -0.024087 -0.0330284 -0.0227152 0.069129 0.0604902 -0.05551 -0.0339831 -0.02271 0.0481767 -0.0426258 0.0411669 0.0383667 0.0934001 0.0235745
internal_weight=691 347 344 312 125 292 222 252 220 195 202 173 56 159 69 40 90 109 69 64 69
internal_count=691 347 344 312 125 292 222 252 220 195 202 173 56 159 69 40 90 109 69 64 69
is_linear=0
shrinkage=0.05


Tree=8
num_leaves=22
num_cat=0
split_feature=0 1 1 4 0 4 4 0 0 4 4 4 0 4 4 0 4 0 0 0 0
split_gain=257.752 149.834 101.332 74.2367 69.7939 65.1792 64.7293 34.6506 31.2694 126.247 35.0976 17.7931 15.8696 22.1804 23.7805 15.23 7.1577 5.84965 1.43302 0.966397 0.0153336
threshold=27.000000000000004 9.0000000000000018 9.0000000000000018 1214865.0000000002 66.000000000000014 871969.00000000012 1015980.0000000001 10.500000000000002 45.000000000000007 774565.00000000012 994958.00000000012 607760.00000000012 4.5000000000000009 819785.00000000012 652026.50000000012 7.5000000000000009 522461.00000000006 15.000000000000002 39.000000000000007 1.0000000180025095e-35 78.000000000000014
decision_type=2 2 2 10 2 10 10 2 2 8 8 10 2 8 10 2 10 2 2 2 2
left_child=2 6 3 5 11 12 8 -7 10 -10 -2 -3 16 14 -14 -15 19 -17 -12 -1 -6
right_child=1 4 -4 -5 20 7 -8 -9 9 -11 18 -13 13 15 -16 17 -18 -19 -20 -21 -22
leaf_value=-0.025261515716002103 0.1027877725660801 -0.074565676487982277 -0.11328802458010614 -0.11305341318249702 0.023354355188516474 -0.0071878454089164745 -0.028626282066106797 0.081109345287084578 -0.018342696130275726 0.12701989808830166 0.031395655603886678 -0.016349183164891742 -0.019816326995690664 0.0053752258971885396 0.045515871735719533 -0.052705251687281844 -0.068740235045552253 -0.026992622640999882 0.043697343338280917 -0.039153328682145772 0.021816214503243912
leaf_weight=21 25 35 32 20 26 20 20 25 20 59 58 21 30 27 26 37 20 55 40 31 43
leaf_count=21 25 35 32 20 26 20 20 25 20 59 58 21 30 27 26 37 20 55 40 31 43
internal_value=0.00211797 0.0325231 -0.0285523 -0.0198615 -0.0112626 -0.0134785 0.0571772 0.0418661 0.0656726 0.0902192 0.0499068 -0.0527345 -0.0235615 -0.0154322 0.0105165 -0.0276433 -0.0433201 -0.0373336 0.0364168 -0.0335432 0.0223958
internal_weight=691 347 344 312 125 292 222 45 202 79 123 56 247 175 56 119 72 92 98 52 69
internal_count=691 347 344 312 125 292 222 45 202 79 123 56 247 175 56 119 72 92 98 52 69
is_linear=0
shrinkage=0.05


Tree=9
num_leaves=21
num_cat=0
split_feature=0 1 4 1 0 0 4 3 3 4 3 4 0 4 1 0 0 4 0 0
split_gain=232.621 135.225 92.2005 67.0285 62.989 61.141 58.4182 48.4476 70.9613 37.5716 31.6676 41.3546 89.8053 16.0583 5.04632 22.289 2.04266 1.27199 1.05302 0.0138386
threshold=27.000000000000004 9.0000000000000018 1191870.0000000002 9.0000000000000018 66.000000000000014 21.000000000000004 1015980.0000000001 11455.299804687502 8928.2749023437518 495109.00000000006 10148.900390625002 432092.00000000006 45.000000000000007 607760.00000000012 4.5000000000000009 10.500000000000002 7.5000000000000009 730879.50000000012 39.000000000000007 78.000000000000014
decision_type=2 2 10 2 2 2 10 10 10 10 10 10 2 10 2 2 2 10 2 2
left_child=2 6 3 5 13 7 10 8 9 14 11 12 18 -3 16 -16 -1 -7 -2 -6
right_child=1 4 -4 -5 19 17 -8 -9 -10 -11 -12 -13 -14 -15 15 -17 -18 -19 -20 -21
leaf_value=-0.044346953817365468 0.031003746106999658 -0.070837392937391996 -0.12164536419635018 -0.092524668266033311 0.022186635090754584 0.035683298856019972 -0.02719496387988329 0.035505852755159141 -0.11148570291697979 0.025751466511024369 0.11074223121435478 -0.011485526391438076 0.11589650002852925 -0.015531729019823529 0.022320798749015446 -0.03943953032915791 -0.028715661800268927 0.053515811264514927 0.041512475572526457 0.020725402998369793
leaf_weight=57 59 35 24 29 26 20 20 32 24 36 29 21 53 21 21 48 33 20 40 43
leaf_count=57 59 35 24 29 26 20 20 32 24 36 29 21 53 21 21 48 33 20 40 43
internal_value=0.00201207 0.0308969 -0.0271247 -0.0200356 -0.0106994 -0.0128116 0.0543183 -0.0219608 -0.0303578 -0.0203728 0.0623889 0.0542835 0.06337 -0.0500978 -0.0308161 -0.0206429 -0.0386155 0.0445996 0.0352497 0.021276
internal_weight=691 347 344 320 125 291 222 251 219 195 202 173 152 56 159 69 90 40 99 69
internal_count=691 347 344 320 125 291 222 251 219 195 202 173 152 56 159 69 90 40 99 69
is_linear=0
shrinkage=0.05


Tree=10
num_leaves=23
num_cat=0
split_feature=0 1 0 3 3 3 1 0 1 0 3 0 0 0 0 0 1 3 0 0 0 0
split_gain=273.719 112.004 101.236 80.3196 76.2692 63.6813 42.4857 38.1546 33.0338 76.3843 20.2181 14.2232 29.2054 7.60918 7.41597 3.37244 2.98243 14.6674 5.85669 0.17096 0.0575639 0.0223972
threshold=27.000000000000004 9.0000000000000018 4.5000000000000009 10967.950195312502 11886.500000000002 8632.3051757812518 9.0000000000000018 21.000000000000004 9.0000000000000018 57.000000000000007 8406.5800781250018 57.000000000000007 45.000000000000007 1.0000000180025095e-35 33.000000000000007 90.000000000000014 4.5000000000000009 7202.4550781250009 15.000000000000002 78.000000000000014 51.000000000000007 39.000000000000007
decision_type=2 2 2 10 10 10 2 2 2 2 10 2 2 2 2 2 2 10 2 2 2 2
left_child=1 2 10 5 7 8 -5 16 11 -10 13 12 14 -1 -2 19 17 -4 -18 -11 -14 -16
right_child=3 -3 4 6 -6 -7 -8 -9 9 15 -12 -13 20 -15 21 -17 18 -19 -20 -21 -22 -23
leaf_value=-0.029573530107736591 0.042649077657196256 -0.11260421350598336 -0.024819770512672572 0.013055783013502756 -0.075621922314167034 0.12683400809764864 -0.077268544746481857 0.051891477749897885 -0.076282203802838927 0.024468097859813322 -0.094368688601094319 0.086673457026481632 0.012137283155551324 -0.066161116854184202 0.06833445185964758 0.050147902830080554 0.017325167462993892 0.025564707443118097 -0.0087605472343663376 0.030231284959749746 0.015283055693814249 0.07034901316101487
leaf_weight=30 45 38 52 30 32 20 23 39 20 31 37 20 26 27 22 22 39 20 48 22 33 37
leaf_count=30 45 38 52 30 32 20 23 39 20 31 37 20 26 27 22 22 39 20 48 22 33 37
internal_value=-0.000888085 -0.0313935 -0.0218688 0.0305733 -0.00400127 0.0406602 -0.0261416 0.00757378 0.0344607 0.010539 -0.0655872 0.046879 0.0419963 -0.0469045 0.0579373 0.0336914 -0.0032966 -0.0108241 0.00293305 0.0268604 0.0138968 0.0695978
internal_weight=713 362 324 351 230 298 53 198 278 95 94 183 163 57 104 75 159 72 87 53 59 59
internal_count=713 362 324 351 230 298 53 198 278 95 94 183 163 57 104 75 159 72 87 53 59 59
is_linear=0
shrinkage=0.05


Tree=11
num_leaves=24
num_cat=0
split_feature=0 7 3 3 0 1 0 3 0 0 0 3 0 0 0 0 1 0 3 0 0 0 0
split_gain=247.031 104.064 94.7361 73.4165 68.4329 58.5748 69.6203 34.8905 28.3885 14.6285 25.4028 6.5346 5.14333 4.3637 4.10868 4.14297 1.49396 1.33267 1.25848 1.18487 0.532974 0.440719 0.34735
threshold=27.000000000000004 -150320.99999999997 11886.500000000002 13654.300292968752 4.5000000000000009 9.0000000000000018 57.000000000000007 9376.2197265625018 21.000000000000004 57.000000000000007 45.000000000000007 13654.300292968752 39.000000000000007 90.000000000000014 7.5000000000000009 10.500000000000002 4.5000000000000009 1.0000000180025095e-35 5959.2250976562509 78.000000000000014 33.000000000000007 15.000000000000002 51.000000000000007
decision_type=2 10 10 10 2 2 2 10 2 2 2 10 2 2 2 2 2 2 10 2 2 2 2
left_child=1 2 4 5 17 7 -7 9 14 10 12 -4 20 19 16 -16 -6 -1 21 -8 -2 -17 -12
right_child=3 -3 11 -5 8 6 13 -9 -10 -11 22 -13 -14 -15 15 18 -18 -19 -20 -21 -22 -23 -24
leaf_value=-0.048742225224321541 0.040516621122757598 -0.14068112721666695 -0.065549631262647692 -0.063982992470264441 -0.002513442873954773 -0.061155181814884323 0.027096884921193123 0.10005018555248778 0.037342709108539256 0.08233978167176248 0.0068719156914287156 -0.099413683691195076 0.066831562245214304 0.047640511325814511 -0.030409278223911925 -0.0088677346939221025 0.015576591945829846 -0.062853059310604018 -0.018420206494629384 0.013044157624244691 0.049743095288674044 -0.0012268363457659016 0.014518901931517053
leaf_weight=44 45 20 29 20 25 29 40 30 46 20 27 28 37 22 24 32 21 27 20 24 24 46 33
leaf_count=44 45 20 29 20 25 29 40 30 46 20 27 28 37 22 24 32 21 27 20 24 24 46 33
internal_value=-0.000843681 -0.0298238 -0.0233409 0.0290447 -0.0115722 0.0346657 0.00583936 0.050013 0.00254023 0.0419425 0.0370754 -0.0821846 0.051791 0.0284305 -0.00698903 -0.0117904 0.00574505 -0.0541083 -0.00723067 0.0218271 0.0437258 -0.00436156 0.0110778
internal_weight=713 362 342 351 285 331 115 216 214 186 166 57 106 86 168 122 46 71 98 64 69 78 60
internal_count=713 362 342 351 285 331 115 216 214 186 166 57 106 86 168 122 46 71 98 64 69 78 60
is_linear=0
shrinkage=0.05


Tree=12
num_leaves=23
num_cat=0
split_feature=0 1 0 3 3 3 3 0 1 0 3 0 0 0 0 3 1 0 0 0 0 0
split_gain=222.946 95.8315 83.6572 69.9107 61.714 56.1345 42.8459 31.5465 27.1113 63.1163 17.6914 11.5049 23.8573 6.59132 6.1817 3.17495 2.83269 3.91757 2.69156 0.196434 0.0395085 0.00619378
threshold=27.000000000000004 9.0000000000000018 4.5000000000000009 10967.950195312502 11886.500000000002 8632.3051757812518 12860.649902343752 21.000000000000004 9.0000000000000018 57.000000000000007 8406.5800781250018 57.000000000000007 45.000000000000007 1.0000000180025095e-35 33.000000000000007 11455.299804687502 4.5000000000000009 15.000000000000002 90.000000000000014 78.000000000000014 51.000000000000007 39.000000000000007
decision_type=2 2 2 10 10 10 10 2 2 2 10 2 2 2 2 8 2 2 2 2 2 2
left_child=1 2 10 5 7 8 -5 15 11 -10 13 12 14 -1 -2 -4 -17 -18 19 -11 -14 -16
right_child=3 -3 4 6 -6 -7 -8 -9 9 18 -12 -13 20 -15 21 16 17 -19 -20 -21 -22 -23
leaf_value=-0.025657742917537692 0.038490793274508585 -0.10345178690591926 -0.019509385091563067 -0.076663340692934789 -0.067705177189782265 0.11790974497795106 0.014043064564466476 0.04742976639133234 -0.06941033504903317 0.021889851506679291 -0.086187366960016457 0.078222795724868788 0.011186819523572922 -0.059710402786731724 0.062430578334765001 -0.0085081916505640211 0.019436824412056894 -0.003039085611383966 0.045258485525846485 0.028067508814009753 0.013792960074814883 0.06348998288850527
leaf_weight=30 45 38 24 23 32 20 30 39 20 31 37 20 26 27 22 55 33 47 22 22 33 37
leaf_count=30 45 38 24 23 32 20 30 39 20 31 37 20 26 27 22 55 33 47 22 22 33 37
internal_value=-0.000801496 -0.0283326 -0.0195224 0.0275924 -0.00328001 0.0370031 -0.0253201 0.00713214 0.0311824 0.00951106 -0.0592643 0.0424326 0.0380412 -0.041788 0.0524489 -0.00275219 0.000226871 0.00623223 0.0305568 0.0244542 0.0126445 0.063095
internal_weight=713 362 324 351 230 298 53 198 278 95 94 183 163 57 104 159 135 80 75 53 59 59
internal_count=713 362 324 351 230 298 53 198 278 95 94 183 163 57 104 159 135 80 75 53 59 59
is_linear=0
shrinkage=0.05


Tree=13
num_leaves=24
num_cat=0
split_feature=4 0 3 3 1 0 1 3 0 4 0 4 3 4 1 0 0 0 0 3 0 0 0
split_gain=208.809 149.24 85.9203 83.0628 57.4194 55.0603 49.374 47.957 41.8254 75.9466 39.3767 32.4691 48.5437 39.2171 23.2022 11.3056 5.48002 4.42545 4.25492 1.39006 1.2869 0.633467 0.254944
threshold=1134670.0000000002 27.000000000000004 15670.299804687502 12860.649902343752 9.0000000000000018 57.000000000000007 9.0000000000000018 13524.449707031252 4.5000000000000009 779202.00000000012 1.0000000180025095e-35 871969.00000000012 11218.000000000002 578225.50000000012 4.5000000000000009 45.000000000000007 57.000000000000007 39.000000000000007 90.000000000000014 10848.550292968752 15.000000000000002 78.000000000000014 33.000000000000007
decision_type=10 2 8 10 2 2 2 8 2 10 2 10 8 10 2 2 2 2 2 10 2 2 2
left_child=1 6 3 -2 7 -6 8 19 9 10 -1 12 -10 14 -14 17 -17 22 21 -3 -16 -7 -9
right_child=2 4 -4 -5 5 18 -8 15 11 -11 -12 -13 13 -15 20 16 -18 -19 -20 -21 -22 -23 -24
leaf_value=0.025264743342995645 -0.055856068375018934 0.087274642884731302 0.00274549914257867 -0.18484900118783118 -0.054891943434874219 0.021449743895917327 -0.077272322649757072 0.036566252377298145 -0.071630396756033096 -0.12500079534947872 -0.056724881353201695 0.055394718706607816 -0.034216707102630452 0.066624745438722044 0.00030235648155212407 0.011219467283511649 0.041258153048428621 0.060315487513671051 0.042995562878522006 0.1059164172783494 0.013349374419166929 0.011019593787690005 0.043350913524627693
leaf_weight=32 26 20 21 24 30 37 30 45 24 20 27 25 46 22 27 49 22 37 22 20 63 24 20
leaf_count=32 26 20 21 24 30 37 30 45 24 20 27 25 46 22 27 49 22 37 22 20 63 24 20
internal_value=-0.000761421 0.00823689 -0.0821265 -0.117773 0.0319714 0.00316155 -0.0162487 0.0472555 -0.00984765 -0.0407989 -0.0122559 0.00196468 -0.00537461 0.00468956 -0.00532937 0.0358474 0.0205272 0.0465115 0.0241447 0.0965955 0.00943527 0.0173461 0.0386538
internal_weight=713 642 71 50 326 113 316 213 286 79 59 207 182 158 136 173 71 102 83 40 90 61 65
internal_count=713 642 71 50 326 113 316 213 286 79 59 207 182 158 136 173 71 102 83 40 90 61 65
is_linear=0
shrinkage=0.05


Tree=14
num_leaves=24
num_cat=0
split_feature=0 7 3 3 0 3 3 0 1 0 0 0 3 0 3 1 0 0 0 0 0 0 0
split_gain=183.226 83.0229 74.7495 59.8373 53.4831 50.4579 41.9715 23.9908 22.2393 52.6197 10.294 20.0897 5.7285 5.13671 4.78908 4.26441 2.96936 2.25535 2.12152 0.817067 0.210189 0.0773637 0.000706741
threshold=27.000000000000004 -150320.99999999997 11886.500000000002 10967.950195312502 4.5000000000000009 8632.3051757812518 12860.649902343752 21.000000000000004 9.0000000000000018 57.000000000000007 57.000000000000007 45.000000000000007 13654.300292968752 33.000000000000007 8353.0947265625018 4.5000000000000009 10.500000000000002 15.000000000000002 90.000000000000014 1.0000000180025095e-35 78.000000000000014 51.000000000000007 39.000000000000007
decision_type=2 10 10 10 2 10 10 2 2 2 2 2 10 2 10 2 2 2 2 2 2 2 2
left_child=1 2 4 5 19 8 -5 14 10 -10 11 13 -4 -2 15 -6 -17 -18 20 -1 -11 -13 -15
right_child=3 -3 12 6 7 -7 -8 -9 9 18 -12 21 -14 22 -16 16 17 -19 -20 -21 -22 -23 -24
leaf_value=-0.042839721556414259 0.034737941622734074 -0.12469945628196002 -0.056585344697894724 -0.074751589868379681 -0.020452668545422732 0.1104303789138794 0.015024469277511041 0.035032117811193607 -0.063483409434556964 0.019722869223163977 0.072248746603727348 0.0088954567049558345 -0.088291961646505768 0.05694185143167322 0.013570148390890272 0.013810802925200689 -0.021793019305914641 -0.0016810123039328535 0.040845785459334205 -0.05388863969732214 0.026113157177513297 0.01254233279914567 0.057299712139206961
leaf_weight=44 45 20 29 23 54 20 30 46 20 31 20 26 28 22 27 21 20 46 22 27 22 33 37
leaf_count=44 45 20 29 23 54 20 30 46 20 31 20 26 28 22 27 21 20 46 22 27 22 33 37
internal_value=-0.000723351 -0.0256818 -0.0198913 0.0250173 -0.00943745 0.0337235 -0.023935 0.00303863 0.0282051 0.00857724 0.0383944 0.0342405 -0.0721605 0.0474617 -0.00572149 -0.00941563 -0.00256506 -0.00777556 0.0277934 -0.0470414 0.0223754 0.0109352 0.0571663
internal_weight=713 362 342 351 285 298 53 214 278 95 183 163 57 104 168 141 87 66 75 71 53 59 59
internal_count=713 362 342 351 285 298 53 214 278 95 183 163 57 104 168 141 87 66 75 71 53 59 59
is_linear=0
shrinkage=0.05


Tree=15
num_leaves=22
num_cat=0
split_feature=4 0 1 0 0 4 4 4 4 0 4 4 4 0 0 0 0 0 0 0 0
split_gain=193.913 128.87 77.4969 69.0915 67.1828 52.8343 41.4202 84.8984 28.2716 24.1574 21.2339 17.0919 11.5694 12.8802 15.7991 11.2271 8.56421 5.40647 5.38206 1.56143 0.162686
threshold=1177870.0000000002 15.000000000000002 9.0000000000000018 57.000000000000007 78.000000000000014 776621.50000000012 857782.00000000012 711321.00000000012 807912.00000000012 21.000000000000004 607760.00000000012 890331.00000000012 441592.00000000006 33.000000000000007 45.000000000000007 7.5000000000000009 10.500000000000002 45.000000000000007 33.000000000000007 1.0000000180025095e-35 4.5000000000000009
decision_type=10 2 2 2 2 8 10 10 8 2 10 10 10 2 2 2 2 2 2 2 2
left_child=1 5 3 6 8 10 7 9 -4 -3 -1 15 13 -11 -15 19 -17 -10 -2 -7 -21
right_child=18 2 4 -5 -6 11 -8 -9 17 12 -12 -13 -14 14 -16 16 -18 -19 -20 20 -22
leaf_value=-0.023327379763126377 -0.12402570486068726 0.0056252637174394396 0.0043014224796068109 -0.049009071566440444 0.033981389724291287 -0.079841260239481932 0.10061393955891783 -0.060381958144716918 -0.043142776055769494 0.061648609995279671 0.041210263107831664 -0.015276945146421592 0.078113276481628413 0.015198710849208217 0.0543743658810854 -0.018146599054336549 -0.060423228808719177 -0.074141797499778936 -0.089690181142872291 -0.067219847899216867 -0.061626476507920483
leaf_weight=25 25 45 21 27 39 24 22 24 22 53 26 30 25 62 44 25 23 39 21 26 26
leaf_count=25 25 45 21 27 39 24 22 24 22 53 26 30 25 62 44 25 23 39 21 26 26
internal_value=-0.00925755 -0.00199913 0.0137687 0.0273153 -0.0200419 -0.0345347 0.034809 0.0290868 -0.0457359 0.0384635 0.00957416 -0.0491422 0.0464946 0.0415231 0.0314603 -0.0573354 -0.0384042 -0.0629618 -0.108351 -0.069292 -0.0644232
internal_weight=674 628 423 302 121 205 275 253 82 229 51 154 184 159 106 124 48 61 46 76 52
internal_count=674 628 423 302 121 205 275 253 82 229 51 154 184 159 106 124 48 61 46 76 52
is_linear=0
shrinkage=0.05


Tree=16
num_leaves=20
num_cat=0
split_feature=4 0 3 3 4 3 4 4 3 0 4 4 0 0 0 0 0 0 0
split_gain=175.006 116.305 107.767 43.1181 35.6233 77.7725 79.8649 41.8349 30.9961 32.8008 63.0055 11.5792 11.1128 13.3063 9.80789 11.5131 6.29143 3.80971 3.10938
threshold=1177870.0000000002 15.000000000000002 11455.299804687502 14542.399902343752 730879.50000000012 15480.899902343752 673495.00000000012 871969.00000000012 10148.900390625002 7.5000000000000009 913087.00000000012 347917.50000000006 66.000000000000014 27.000000000000004 33.000000000000007 45.000000000000007 57.000000000000007 4.5000000000000009 39.000000000000007
decision_type=10 2 10 8 10 8 8 10 8 2 8 10 2 2 2 2 2 2 2
left_child=1 2 8 -2 5 -3 -7 -6 -1 10 -10 -11 13 -8 -15 18 -17 -12 -16
right_child=3 4 -4 -5 7 6 12 -9 9 11 17 -13 -14 14 15 16 -18 -19 -20
leaf_value=0.0056488479690059374 -0.1453902449960319 0.095225074839207446 0.051483641943195838 -0.04773916564881802 -0.056019245370014292 -0.07352332437038421 0.0042224831568698088 0.020810307693832061 -0.15446277134120467 -0.043829795995423963 -0.044715739820491186 0.0022201873362064362 -0.0014446836108198535 0.051753233546434456 -0.0047242778042952223 0.049466909306204843 0.017887129882971444 -0.069826681976733002 0.017648994177579879
leaf_weight=23 26 31 32 20 37 25 63 34 20 43 44 20 52 43 24 46 24 23 44
leaf_count=23 26 31 32 20 37 25 63 34 20 43 44 20 52 43 24 46 24 23 44
internal_value=-0.00879468 -0.00189918 -0.032808 -0.102933 0.0130803 0.0195969 0.0122933 -0.0192276 -0.0483995 -0.0566869 -0.0765835 -0.0292108 0.0195413 0.0240137 0.0309024 0.0244054 0.0386396 -0.0533359 0.00975255
internal_weight=674 628 205 46 423 352 321 71 173 150 87 63 296 244 181 138 70 67 68
internal_count=674 628 205 46 423 352 321 71 173 150 87 63 296 244 181 138 70 67 68
is_linear=0
shrinkage=0.05


Tree=17
num_leaves=21
num_cat=0
split_feature=4 0 3 3 4 3 3 4 3 0 4 0 0 0 0 0 4 0 4 0
split_gain=157.943 104.965 97.2599 38.9141 32.7339 48.6471 43.4724 37.1687 27.974 29.6028 56.8625 15.0933 13.1188 11.9212 14.862 14.5954 10.4502 8.71754 7.27583 3.43826
threshold=1177870.0000000002 15.000000000000002 11455.299804687502 14542.399902343752 813726.00000000012 11322.250000000002 11322.250000000002 780792.00000000012 10148.900390625002 7.5000000000000009 913087.00000000012 66.000000000000014 45.000000000000007 33.000000000000007 27.000000000000004 39.000000000000007 347917.50000000006 57.000000000000007 578225.50000000012 4.5000000000000009
decision_type=10 2 10 8 10 10 8 8 8 2 8 2 2 2 2 2 10 2 10 2
left_child=1 2 8 -2 6 -6 -3 18 -1 10 -10 12 13 14 -9 -15 -11 -14 -8 -12
right_child=3 4 -4 -5 5 -7 7 11 9 16 19 -13 17 15 -16 -17 -18 -19 -20 -21
leaf_value=0.0053664039820432666 -0.13812073208391668 0.070411023497581479 0.048909460275899624 -0.045352205261588098 -0.081140655617822299 0.020804341673851014 -0.010658438368277116 0.011157491998164916 -0.14673963181674482 -0.041638308850138694 -0.042479950358921832 -0.0065043545528954156 0.054030276454509578 -0.031706522156794863 0.049165574963702718 0.016766539893367075 0.0021091784536838533 0.016992774109045664 -0.051322893954982809 -0.066335346776506182
leaf_weight=23 26 35 32 20 22 25 22 64 20 43 44 51 47 24 43 44 20 24 22 23
leaf_count=23 26 35 32 20 22 25 22 64 20 43 44 51 47 24 43 44 20 24 22 23
internal_value=-0.00835494 -0.00180422 -0.0311676 -0.0977866 0.0124263 -0.0269146 0.0173439 0.0118971 -0.0459795 -0.0538526 -0.0727543 0.0182508 0.023383 0.0160284 0.0264318 -0.0003416 -0.0277502 0.0415106 -0.0309907 -0.0506691
internal_weight=674 628 205 46 423 47 376 341 173 150 87 297 246 175 107 68 63 71 44 67
internal_count=674 628 205 46 423 47 376 341 173 150 87 297 246 175 107 68 63 71 44 67
is_linear=0
shrinkage=0.05


Tree=18
num_leaves=21
num_cat=0
split_feature=4 0 1 0 0 4 4 4 4 0 4 1 4 4 0 0 0 0 0 0
split_gain=142.544 94.731 64.3229 61.8481 59.2851 45.7438 40.4423 70.7917 25.5232 19.3914 18.8584 13.9095 27.4794 10.9894 19.5845 28.7844 8.03766 11.136 5.5755 5.14223
threshold=1177870.0000000002 15.000000000000002 9.0000000000000018 78.000000000000014 57.000000000000007 776621.50000000012 857782.00000000012 711321.00000000012 807912.00000000012 21.000000000000004 607760.00000000012 4.5000000000000009 994958.00000000012 1.0000000180025095e-35 45.000000000000007 33.000000000000007 4.5000000000000009 1.0000000180025095e-35 45.000000000000007 33.000000000000007
decision_type=10 2 2 2 2 8 10 10 8 2 10 2 8 10 2 2 2 2 2 2
left_child=1 5 4 8 6 10 7 9 -4 -3 -1 12 -7 14 15 -11 17 -14 -10 -2
right_child=19 2 3 -5 -6 11 -8 -9 18 13 -12 -13 16 -15 -16 -17 -18 -19 -20 -21
leaf_value=-0.019573209047317505 -0.10821894115209581 0.0045749973588519628 0.0038920682101022635 0.032835954465927221 -0.046554135834729234 -0.081844340413808836 0.096111584251577217 -0.056264432628328601 -0.039891607382080779 0.051491771269446387 0.041247360064433171 -0.071431652209995422 -0.010545107367492859 0.066857233906493466 0.065334313511848457 0.00026119032810474266 -0.0085371351179977257 -0.059499069360586312 -0.071371508962832966 -0.074657160824253443
leaf_weight=25 25 45 21 39 27 25 22 24 22 52 26 34 21 34 40 58 48 26 39 21
leaf_count=25 25 45 21 39 27 25 22 24 22 52 26 34 21 34 40 58 48 26 39 21
internal_value=-0.0079372 -0.00171401 0.0118049 -0.0189981 0.0241466 -0.0296092 0.0310881 0.0254339 -0.0436509 0.0339961 0.0114334 -0.0432012 -0.0352026 0.0411915 0.035374 0.0244793 -0.0229285 -0.037626 -0.0600181 -0.0928973
internal_weight=674 628 423 121 302 205 275 253 82 229 51 154 120 184 150 110 95 47 61 46
internal_count=674 628 423 121 302 205 275 253 82 229 51 154 120 184 150 110 95 47 61 46
is_linear=0
shrinkage=0.05


Tree=19
num_leaves=21
num_cat=0
split_feature=4 0 3 1 0 0 3 4 3 3 0 4 4 1 0 4 0 0 0 0
split_gain=128.646 85.4948 88.0898 58.0514 55.8179 53.5048 74.1511 57.1609 35.2538 24.2475 25.2375 52.4892 23.0347 16.9359 13.6402 8.68093 17.6692 35.135 5.5045 2.93675
threshold=1177870.0000000002 15.000000000000002 11455.299804687502 9.0000000000000018 78.000000000000014 57.000000000000007 11218.000000000002 699299.00000000012 14542.399902343752 10148.900390625002 7.5000000000000009 913087.00000000012 807912.00000000012 4.5000000000000009 21.000000000000004 633709.00000000012 45.000000000000007 33.000000000000007 57.000000000000007 4.5000000000000009
decision_type=10 2 10 2 2 2 10 10 8 8 2 8 8 2 2 8 2 2 2 2
left_child=1 2 9 5 12 6 7 14 -2 -1 11 -11 -5 -12 -3 -16 17 -17 -14 -13
right_child=8 3 -4 4 -6 -7 -8 -9 -10 10 13 19 18 -15 15 16 -18 -19 -20 -21
leaf_value=0.0055786082602065547 -0.12664279360324146 0.0043462483088175458 0.048079831810900947 0.003697463870048523 0.031194156484726149 -0.044226428148923101 0.10988172689596049 -0.052207006979733711 -0.038344882018864157 -0.13809087717905641 -0.0057959794998168951 -0.038220290738073266 -0.07085241657314878 -0.05964167995945268 0.0071289045115311943 0.058248716104267677 0.067612410173183535 0.00292236735423406 -0.040711401615824018 -0.060267358305661579
leaf_weight=23 26 45 32 21 39 27 26 24 20 20 40 44 33 23 24 55 41 60 28 23
leaf_count=23 26 45 32 21 39 27 26 24 20 20 40 44 33 23 24 55 41 60 28 23
internal_value=-0.00754034 -0.00162831 -0.0281288 0.0112147 -0.0180482 0.0229392 0.0295337 0.0211439 -0.0882524 -0.0422251 -0.049555 -0.0670076 -0.0414683 -0.0254539 0.028968 0.0351235 0.0394303 0.0293828 -0.0570172 -0.0457887
internal_weight=674 628 205 423 121 302 275 249 46 173 150 87 82 63 225 180 156 115 61 67
internal_count=674 628 205 423 121 302 275 249 46 173 150 87 82 63 225 180 156 115 61 67
is_linear=0
shrinkage=0.05


Tree=20
num_leaves=21
num_cat=0
split_feature=3 6 4 3 0 4 1 1 0 4 0 0 0 0 4 0 0 4 0 0
split_gain=216.444 77.4075 62.0388 120.2 76.5422 49.0641 43.6502 57.24 74.8309 19.6493 19.0763 6.58013 12.7722 7.14323 5.71129 2.70976 3.44075 2.00056 1.14717 0.0148626
threshold=7519.1098632812509 5404.4453125000009 871969.00000000012 11455.299804687502 15.000000000000002 1191870.0000000002 4.5000000000000009 9.0000000000000018 27.000000000000004 909288.00000000012 45.000000000000007 15.000000000000002 27.000000000000004 39.000000000000007 736241.00000000012 78.000000000000014 90.000000000000014 890331.00000000012 4.5000000000000009 57.000000000000007
decision_type=10 8 10 10 2 10 2 2 2 8 2 2 2 2 10 2 2 8 2 2
left_child=6 -2 3 14 -4 -6 17 9 -9 -8 11 -11 -13 -14 -3 19 -17 -1 -19 -10
right_child=1 2 4 -5 5 -7 7 8 15 10 -12 12 13 -15 -16 16 -18 18 -20 -21
leaf_value=-0.0017956663761287926 -0.1362946770194432 -0.10353104009710511 -0.062564271326000634 0.0061881389468908315 0.077716922649630801 -0.024184701520772206 0.065575378408303131 -0.098048725612461571 -0.00062235546382990753 -0.0028976890932897043 0.051739363924696524 0.041112165067528121 0.0014842525124549866 0.028004768837329955 -0.13776943683624268 0.030195429176092151 0.0024821923602195012 -0.024646295321748612 -0.013202124034486167 0.0011142961148704802
leaf_weight=20 23 29 37 32 27 21 37 20 22 29 58 61 62 43 21 24 21 47 41 28
leaf_count=20 23 29 37 32 27 21 37 20 22 29 58 61 62 43 21 24 21 47 41 28
internal_value=-0.00471086 -0.0502985 -0.0384547 -0.0694822 -0.00852235 0.033135 0.0121735 0.0197051 -0.0101448 0.0315421 0.0265649 0.0190771 0.0229161 0.012345 -0.117911 0.00836131 0.0172626 -0.0160702 -0.0193144 0.000350169
internal_weight=703 190 167 82 85 48 513 405 115 290 253 195 166 105 50 95 45 108 88 50
internal_count=703 190 167 82 85 48 513 405 115 290 253 195 166 105 50 95 45 108 88 50
is_linear=0
shrinkage=0.05


Tree=21
num_leaves=24
num_cat=0
split_feature=3 6 3 1 1 0 0 3 3 3 3 0 0 0 0 0 0 0 0 0 0 0 0
split_gain=195.341 69.8603 54.607 39.3943 51.6591 67.5349 12.3471 18.5257 38.2636 15.1501 11.3803 10.3328 15.4405 3.14324 5.23956 2.44555 3.10527 1.86659 1.61786 1.45025 1.72835 0.105208 0.0134136
threshold=7519.1098632812509 5404.4453125000009 9143.7500000000018 4.5000000000000009 9.0000000000000018 27.000000000000004 4.5000000000000009 11886.500000000002 14256.350097656252 10496.350097656252 12860.649902343752 45.000000000000007 51.000000000000007 27.000000000000004 21.000000000000004 78.000000000000014 90.000000000000014 10.500000000000002 39.000000000000007 1.0000000180025095e-35 7.5000000000000009 33.000000000000007 57.000000000000007
decision_type=10 8 10 2 2 2 2 10 10 10 10 2 2 2 2 2 2 2 2 2 2 2 2
left_child=3 -2 -3 19 11 -6 -4 9 10 -8 -9 13 -13 14 17 22 -17 -5 21 -1 -21 -15 -7
right_child=1 2 6 4 5 15 7 8 -10 -11 -12 12 -14 18 -16 16 -18 -19 -20 20 -22 -23 -24
leaf_value=-0.0049770027542343507 -0.12947994279472724 -0.10632278798148037 -0.053333129584789279 0.01212047204375267 -0.09314628958702087 -0.00059124305844306948 -0.022256271087605022 -0.089768667306218838 0.014421408295631408 0.034531832300126554 -0.037068159990012645 0.081383290209553469 0.030798795679584146 0.012910467742577845 0.053921820074319837 0.028685654699802401 0.0023580766682113922 0.029588024879877384 0.026604530284571094 -0.025275184853341095 -0.01071808502862328 0.01688965753867076 0.0010585799281086241
leaf_weight=26 23 24 30 20 20 22 23 21 25 24 20 22 48 46 20 24 21 65 43 44 38 26 28
leaf_count=26 23 24 30 20 20 22 23 21 25 24 20 22 48 46 20 24 21 65 43 44 38 26 28
internal_value=-0.00447531 -0.0477836 -0.036532 0.0115648 0.0187198 -0.00963754 -0.0248188 -0.0172487 -0.0343329 0.00674191 -0.0640611 0.029965 0.0466968 0.0246412 0.0308959 0.00794324 0.0163995 0.025478 0.0189305 -0.0152666 -0.0185292 0.0143474 0.000332658
internal_weight=703 190 167 513 405 115 143 113 66 47 41 290 70 220 105 95 45 85 115 108 82 72 50
internal_count=703 190 167 513 405 115 143 113 66 47 41 290 70 220 105 95 45 85 115 108 82 72 50
is_linear=0
shrinkage=0.05


Tree=22
num_leaves=22
num_cat=0
split_feature=3 6 4 3 0 4 0 1 0 4 0 1 4 4 0 0 0 0 0 0 0
split_gain=176.295 63.0489 54.472 107.075 67.6861 45.1343 35.6603 48.1513 60.9502 18.3381 16.2642 6.00093 5.04915 4.24338 3.41768 6.12671 2.74135 2.20711 2.80251 0.0202992 0.0121058
threshold=7519.1098632812509 5404.4453125000009 871969.00000000012 11455.299804687502 15.000000000000002 1191870.0000000002 10.500000000000002 9.0000000000000018 27.000000000000004 909288.00000000012 45.000000000000007 4.5000000000000009 736241.00000000012 566287.50000000012 27.000000000000004 39.000000000000007 1.0000000180025095e-35 78.000000000000014 90.000000000000014 4.5000000000000009 57.000000000000007
decision_type=10 8 10 10 2 10 2 2 2 8 2 2 10 10 2 2 2 2 2 2 2
left_child=6 -2 3 12 -4 -6 11 9 -9 13 14 16 -3 -8 -11 -16 -1 20 -19 -18 -10
right_child=1 2 4 -5 5 -7 7 8 17 10 -12 -13 -14 -15 15 -17 19 18 -20 -21 -22
leaf_value=-0.0047281521873978466 -0.12300594649885013 -0.095966867280417478 -0.057477233740123548 0.0076405657455325127 0.075274864666991764 -0.022460649268967764 0.043662537932395939 -0.088488975092768679 -0.00056167942556467924 0.024588709955032057 0.047045560572938676 0.011514453738927842 -0.12815942253385271 0.075843053772335967 0.00071317108888779921 0.025274303902027218 -0.02275805602471034 0.027251373728116354 0.0022401795500800723 -0.024478607634082439 0.0010056510035480772
leaf_weight=26 23 29 37 32 27 21 20 20 22 78 58 20 21 21 62 43 30 24 21 40 28
leaf_count=26 23 29 37 32 27 21 20 20 22 78 58 20 21 21 62 43 30 24 21 40 28
internal_value=-0.00425155 -0.0453944 -0.0347054 -0.0637791 -0.00665776 0.0325156 0.0109865 0.0181124 -0.00915567 0.0292324 0.0239733 -0.0134011 -0.109488 0.0601452 0.0166608 0.0107715 -0.0185919 0.00754608 0.0155795 -0.0237412 0.000316026
internal_weight=703 190 167 82 85 48 513 397 115 282 241 116 50 41 183 105 96 95 45 70 50
internal_count=703 190 167 82 85 48 513 397 115 282 241 116 50 41 183 105 96 95 45 70 50
is_linear=0
shrinkage=0.05


Tree=23
num_leaves=22
num_cat=0
split_feature=4 6 1 0 4 0 0 4 4 0 0 0 0 0 0 1 0 0 0 0 0
split_gain=119.147 54.401 51.1259 66.6661 47.6283 25.276 21.573 14.4295 47.3973 25.9939 27.33 17.3093 9.81106 6.60104 13.585 2.48401 2.2229 1.8741 1.28988 2.46425 0.120863
threshold=511178.00000000006 5404.4453125000009 9.0000000000000018 15.000000000000002 594773.50000000012 4.5000000000000009 57.000000000000007 871969.00000000012 813726.00000000012 15.000000000000002 45.000000000000007 21.000000000000004 1.0000000180025095e-35 45.000000000000007 27.000000000000004 4.5000000000000009 7.5000000000000009 33.000000000000007 78.000000000000014 90.000000000000014 39.000000000000007
decision_type=10 8 2 2 10 2 2 10 10 2 2 2 2 2 2 2 2 2 2 2 2
left_child=2 -2 3 12 -3 -6 -4 8 11 -9 -11 -7 -1 14 -5 16 -14 -16 -8 -20 -19
right_child=1 4 6 13 5 7 18 9 -10 10 -12 -13 15 -15 17 -17 -18 20 19 -21 -22
leaf_value=0.022207674607634547 -0.10332095387081307 -0.094042724167758773 -0.055460904154085347 0.049369578625335073 -0.05280980625404761 0.034252887930382385 0.0047472562478936241 -0.03882944914309875 -0.089906422346830384 0.050500769953469971 -0.018008279769370954 -0.021213585520401979 -0.028857640996575357 0.049315117072546856 0.012229284158219464 -0.0033532149557556424 -0.011603375843593054 0.02871535658836365 -0.022094280946822392 0.0021281705016181584 0.024010589926741845
leaf_weight=20 24 22 31 61 39 22 23 23 20 37 24 39 40 64 46 28 35 20 21 21 43
leaf_count=20 24 22 31 61 39 22 23 23 20 37 24 39 40 64 46 28 35 20 21 21 43
internal_value=-0.00403897 -0.0317475 0.0112527 0.0199632 -0.0241467 -0.0166089 -0.0211395 -0.00805238 -0.0231098 0.00646729 0.0235464 -0.00120928 -0.0098387 0.0356283 0.0304756 -0.0160613 -0.0208057 0.0199019 -0.00477079 -0.00998306 0.0255042
internal_weight=703 250 453 357 226 204 96 165 81 84 61 61 123 234 170 103 75 109 65 42 63
internal_count=703 250 453 357 226 204 96 165 81 84 61 61 123 234 170 103 75 109 65 42 63
is_linear=0
shrinkage=0.05


Tree=24
num_leaves=24
num_cat=0
split_feature=3 6 3 1 1 0 0 3 3 3 3 0 0 0 0 0 0 0 0 0 0 0 0
split_gain=148.128 51.4931 43.6325 29.6584 36.5351 53.5242 8.49348 19.3156 35.1501 13.1302 9.94302 7.34391 14.3762 2.33022 4.66346 1.85365 2.86317 1.14797 1.13207 1.05626 1.1506 0.0449419 0.000933448
threshold=7519.1098632812509 5404.4453125000009 9143.7500000000018 4.5000000000000009 9.0000000000000018 27.000000000000004 4.5000000000000009 11886.500000000002 14256.350097656252 10496.350097656252 12860.649902343752 45.000000000000007 51.000000000000007 27.000000000000004 21.000000000000004 78.000000000000014 90.000000000000014 10.500000000000002 39.000000000000007 1.0000000180025095e-35 7.5000000000000009 33.000000000000007 57.000000000000007
decision_type=10 8 10 2 2 2 2 10 10 10 10 2 2 2 2 2 2 2 2 2 2 2 2
left_child=3 -2 -3 19 11 -6 -4 9 10 -8 -9 13 -13 14 17 22 -17 -5 21 -1 -21 -15 -7
right_child=1 2 6 4 5 15 7 8 -10 -11 -12 12 -14 18 -16 16 -18 -19 -20 20 -22 -23 -24
leaf_value=-0.0043687190860509876 -0.11168960047804791 -0.094275193164745974 -0.045069691538810734 0.011106389239430428 -0.081852169036865235 0.001760406792163849 -0.017640696271606113 -0.085108532366298506 0.01414255452156067 0.035226322710514069 -0.035848305989056826 0.073371430554173209 0.024561467007151807 0.01161782518029213 0.048416290692985059 0.027302182465791705 0.0020217595355851311 0.024804920256137848 0.022810056459072026 -0.021438632490621373 -0.009561255142876977 0.014218560778177703 0.001325185809816633
leaf_weight=26 23 24 30 20 20 22 23 21 25 24 20 22 48 46 20 24 21 65 43 44 38 26 28
leaf_count=26 23 24 30 20 20 22 23 21 25 24 20 22 48 46 20 24 21 65 43 44 38 26 28
internal_value=-0.00383702 -0.0415502 -0.0318903 0.0101308 0.0163391 -0.00750869 -0.0214201 -0.0151415 -0.0325861 0.00935523 -0.0610792 0.025796 0.0399017 0.0213078 0.0266931 0.00814256 0.0155047 0.0215817 0.0163907 -0.0131501 -0.0159345 0.012557 0.00151668
internal_weight=703 190 167 513 405 115 143 113 66 47 41 290 70 220 105 95 45 85 115 108 82 72 50
internal_count=703 190 167 513 405 115 143 113 66 47 41 290 70 220 105 95 45 85 115 108 82 72 50
is_linear=0
shrinkage=0.05


Tree=25
num_leaves=21
num_cat=0
split_feature=4 4 4 6 0 3 4 0 4 1 0 3 4 0 0 0 0 0 0 0
split_gain=110.165 86.4166 68.8083 54.6938 75.9928 57.8352 99.7905 49.94 41.237 33.7537 37.9772 30.262 19.646 37.3969 10.4548 10.4539 7.0748 2.06216 0.113812 0.0150983
threshold=819785.00000000012 774565.00000000012 432092.00000000006 5404.4453125000009 21.000000000000004 9596.9951171875018 1191870.0000000002 21.000000000000004 552705.50000000012 9.0000000000000018 57.000000000000007 11420.049804687502 722964.50000000012 33.000000000000007 45.000000000000007 39.000000000000007 7.5000000000000009 4.5000000000000009 15.000000000000002 78.000000000000014
decision_type=10 10 10 8 2 10 10 2 10 2 2 10 10 2 2 2 2 2 2 2
left_child=1 2 7 -2 11 -6 -7 16 -4 14 -11 -5 13 -10 15 -9 17 -1 -18 -12
right_child=3 -3 8 4 5 6 -8 9 12 10 19 -13 -14 -15 -16 -17 18 -19 -20 -21
leaf_value=0.0014050842008807444 -0.11306719638407231 0.1096182498911565 -0.087822960252347204 -0.02498667296767235 -0.056220369548960175 0.10525990379629312 -0.040066226571798327 0.047934308312308625 -0.028263750277897893 -0.045792469501495361 0.028580885274069653 -0.09791657317316893 -0.053729697857052089 0.056599600400243491 0.063636497406325501 0.016224293010990796 -0.014495969749987125 0.01895810084210502 -0.011034539532154164 0.026979115088620494
leaf_weight=44 20 22 23 25 22 27 21 71 34 25 28 33 20 21 51 41 48 27 47 31
leaf_count=44 20 22 23 25 22 27 21 71 34 25 28 33 20 21 51 41 48 27 47 31
internal_value=0.00199161 0.0125887 0.00841128 -0.0361722 -0.0241573 0.0109111 0.0416797 0.0173488 -0.0292541 0.0316024 0.00585483 -0.0664813 -0.0112929 0.00413862 0.0448711 0.0363262 -0.00385986 0.00808018 -0.0127835 0.0277393
internal_weight=681 533 511 148 128 70 48 413 98 247 84 58 75 55 163 112 166 71 95 59
internal_count=681 533 511 148 128 70 48 413 98 247 84 58 75 55 163 112 166 71 95 59
is_linear=0
shrinkage=0.05


Tree=26
num_leaves=20
num_cat=0
split_feature=3 0 1 3 3 3 3 0 3 3 1 0 0 0 0 0 0 0 0
split_gain=89.8133 57.7324 76.9051 103.699 44.4287 33.8639 31.5044 22.9172 22.6626 42.1789 13.5655 16.3514 11.1048 11.2602 8.43902 1.84536 1.54991 2.14669 0.099311
threshold=13524.449707031252 57.000000000000007 9.0000000000000018 12416.100097656252 14931.600097656252 9376.2197265625018 11660.400390625002 66.000000000000014 10148.900390625002 7519.1098632812509 4.5000000000000009 15.000000000000002 21.000000000000004 33.000000000000007 39.000000000000007 51.000000000000007 1.0000000180025095e-35 7.5000000000000009 78.000000000000014
decision_type=10 2 2 10 10 10 10 2 10 10 2 2 2 2 2 2 2 2 2
left_child=1 2 3 6 -2 -4 8 -3 9 10 16 -12 -13 -14 -15 -16 -1 -18 -9
right_child=4 7 5 -5 -6 -7 -8 18 -10 -11 11 12 13 14 15 -17 17 -19 -20
leaf_value=-0.01623172745589287 -0.11977827988919759 0.075638596231446545 -0.025718742410341902 0.11342204897241159 -0.019188350698222285 -0.10261313801720029 -0.057537052957784565 0.026749260630458595 0.047866663901970308 -0.050352261066436768 0.04775695098984626 -0.012287273940940698 0.032359853678693373 -0.020113109588623047 0.017940479594058003 0.0019099068756286916 0.0038231356487590444 -0.011581556747357051 0.022596972383972673
leaf_weight=31 21 34 45 22 23 21 21 24 29 35 31 48 60 25 58 26 49 42 36
leaf_count=31 21 34 45 22 23 21 21 24 29 35 31 48 60 25 58 26 49 42 36
internal_value=0.00189203 0.00666428 0.000401403 0.0074008 -0.0671972 -0.0501851 0.0022745 0.0428424 0.0051686 0.00211121 0.00707397 0.0137889 0.00893631 0.0149643 0.00538879 0.0129786 -0.00657603 -0.00328672 0.0242579
internal_weight=681 637 543 477 44 66 455 94 434 405 370 248 217 169 109 84 122 91 60
internal_count=681 637 543 477 44 66 455 94 434 405 370 248 217 169 109 84 122 91 60
is_linear=0
shrinkage=0.05


Tree=27
num_leaves=20
num_cat=0
split_feature=3 0 1 3 3 3 0 0 3 3 1 0 0 0 0 0 0 0 0
split_gain=81.0565 52.1035 69.4069 93.5885 40.0969 30.5622 29.2135 20.6828 11.9689 45.2821 7.74491 20.4812 5.48122 19.7221 15.4796 10.6414 2.57917 2.54245 0.0896282
threshold=13524.449707031252 57.000000000000007 9.0000000000000018 12416.100097656252 14931.600097656252 9376.2197265625018 1.0000000180025095e-35 66.000000000000014 11848.199707031252 10148.900390625002 4.5000000000000009 15.000000000000002 33.000000000000007 39.000000000000007 21.000000000000004 27.000000000000004 4.5000000000000009 45.000000000000007 78.000000000000014
decision_type=10 2 2 10 10 10 2 2 8 10 2 2 2 2 2 2 2 2 2
left_child=1 2 3 6 -2 -4 -1 -3 9 -8 16 -12 14 -14 -13 -16 -10 -15 -9
right_child=4 7 5 -5 -6 -7 8 18 10 -11 11 12 13 17 15 -17 -18 -19 -20
leaf_value=-0.034307988261689952 -0.11378936639853887 0.071856667035642793 -0.024432804120911492 0.107750944996422 -0.01822893151446529 -0.097482481882685712 -0.0095034919728181864 0.025411797811587651 0.0022999203701814016 0.074294694579605552 0.045369107107962332 -0.011672913345197837 -0.045017795085906982 0.014516051258982683 0.05614790873369202 0.012001999727515289 -0.015606361624525221 -0.0030923371271389288 0.021467125043272972
leaf_weight=49 21 34 45 22 23 21 38 24 30 28 31 48 25 41 20 43 61 41 36
leaf_count=49 21 34 45 22 23 21 38 24 30 28 31 48 25 41 20 43 61 41 36
internal_value=0.00179743 0.00633107 0.000381332 0.00703076 -0.0638373 -0.0476759 0.00216077 0.0407003 0.00656217 0.0260473 0.00277978 0.00734182 0.00193427 -0.00614087 0.00971842 0.0260166 -0.00970319 0.00571186 0.023045
internal_weight=681 637 543 477 44 66 455 94 406 66 340 249 218 107 111 63 91 82 60
internal_count=681 637 543 477 44 66 455 94 406 66 340 249 218 107 111 63 91 82 60
is_linear=0
shrinkage=0.05


Tree=28
num_leaves=22
num_cat=0
split_feature=3 0 7 3 3 1 0 0 3 3 0 0 0 3 0 0 0 0 0 0 0
split_gain=73.1535 47.141 81.334 36.1874 23.3756 20.819 17.9532 16.4337 13.5587 13.0778 8.80193 5.50259 6.89448 3.54339 2.28745 2.16209 1.65116 3.00972 0.988955 0.733616 0.245449
threshold=13524.449707031252 39.000000000000007 -492000.49999999994 14931.600097656252 11322.250000000002 4.5000000000000009 57.000000000000007 66.000000000000014 8406.5800781250018 10148.900390625002 15.000000000000002 21.000000000000004 33.000000000000007 11455.299804687502 45.000000000000007 78.000000000000014 1.0000000180025095e-35 7.5000000000000009 4.5000000000000009 27.000000000000004 51.000000000000007
decision_type=10 2 10 10 8 2 2 2 10 10 2 2 2 10 2 2 2 2 2 2 2
left_child=1 2 5 -2 -3 8 14 -8 16 10 -7 -12 19 -10 -6 -9 -1 18 -18 -13 -16
right_child=3 4 -4 -5 6 9 7 15 13 -11 11 12 -14 -15 20 -17 17 -19 -20 -21 -22
leaf_value=-0.013704741121299805 -0.1080998950061344 0.069841841149788642 -0.097124956277283764 -0.017317484659345253 0.013790250878508499 0.027354029279488785 0.065849286355078224 0.0071523865063985188 -0.051151480729736035 0.038300956045654984 -0.013313431044419607 0.021312955157323319 -0.009734491204343193 -0.022105596995069868 -0.0045713522820733489 0.027675211494506309 0.0021849238872528078 -0.01022942399694806 0.016538751623593272 0.011401896559914878 0.0019690293961992628
leaf_weight=31 21 26 22 23 41 39 30 21 21 37 48 33 41 21 32 33 30 42 20 43 26
leaf_count=31 21 26 22 23 41 39 30 21 21 37 48 33 41 21 32 33 30 42 20 43 26
internal_value=0.00170756 0.00601451 -0.00349046 -0.0606455 0.0254792 0.00158334 0.0191764 0.0361781 -0.0121004 0.0109518 0.00599146 0.000942123 0.00679055 -0.0366285 0.00475062 0.0196941 -0.00372488 -0.000362098 0.00792645 0.0157054 -0.00163946
internal_weight=681 637 428 44 209 406 183 84 165 241 204 165 117 42 99 54 123 92 50 76 58
internal_count=681 637 428 44 209 406 183 84 165 241 204 165 117 42 99 54 123 92 50 76 58
is_linear=0
shrinkage=0.05


Tree=29
num_leaves=21
num_cat=0
split_feature=4 4 4 6 0 3 4 3 0 1 4 4 0 3 0 0 0 0 0 0
split_gain=86.0969 77.9772 58.2394 42.7783 65.9906 53.2527 83.5442 41.8108 38.4248 30.9375 29.3755 48.0648 27.6027 26.605 8.65841 9.91167 4.81863 0.904795 0.164738 0.00217235
threshold=819785.00000000012 774565.00000000012 432092.00000000006 5404.4453125000009 21.000000000000004 9596.9951171875018 1191870.0000000002 9292.4750976562518 21.000000000000004 9.0000000000000018 552705.50000000012 627714.00000000012 57.000000000000007 11420.049804687502 45.000000000000007 39.000000000000007 7.5000000000000009 4.5000000000000009 15.000000000000002 78.000000000000014
decision_type=10 10 10 8 2 10 10 8 2 2 10 10 2 10 2 2 2 2 2 2
left_child=1 2 8 -2 13 -6 -7 -4 16 14 -9 -12 -11 -5 15 -10 17 -1 -18 -14
right_child=3 -3 7 4 5 6 -8 10 9 12 11 -13 19 -15 -16 -17 18 -19 -20 -21
leaf_value=0.0020736747167327189 -0.10012110620737076 0.10316036006605084 0.033071225445779749 -0.022023947641253473 -0.053228237920186744 0.098888180932650963 -0.034082892883036821 -0.095508208303224484 0.043977466351549394 -0.040933923363685613 0.02913999595557866 -0.065620205551385882 0.021435615154249327 -0.090405495758309515 0.057527951078087683 0.013100734462098376 -0.012783600948750973 0.01370063269579852 -0.0086191318136580441 0.022043191398223562
leaf_weight=44 20 22 22 25 22 27 21 21 71 25 23 32 28 33 51 41 48 27 47 31
leaf_count=44 20 22 22 25 22 27 21 21 71 25 23 32 28 33 51 41 48 27 47 31
internal_value=0.00162218 0.0109904 0.00702223 -0.0321161 -0.0214903 0.0111888 0.0407133 -0.0276299 0.0152448 0.0277475 -0.0452013 -0.0259932 0.00309748 -0.0609307 0.0404506 0.0326744 -0.00335875 0.00649519 -0.0107233 0.0217549
internal_weight=681 533 511 148 128 70 48 98 413 247 76 55 84 58 163 112 166 71 95 59
internal_count=681 533 511 148 128 70 48 98 413 247 76 55 84 58 163 112 166 71 95 59
is_linear=0
shrinkage=0.05


Tree=30
num_leaves=22
num_cat=0
split_feature=2 3 3 3 4 4 4 4 3 2 4 2 2 2 2 2 2 2 2 2 2
split_gain=44.6902 33.6128 37.4962 43.762 53.9947 43.515 30.7216 43.3518 46.8788 35.363 18.3789 8.24021 33.2374 8.0275 22.7696 5.73535 9.51735 9.08936 5.52329 2.52339 0.0920924
threshold=33.000000000000007 13654.300292968752 11322.250000000002 8406.5800781250018 867784.00000000012 642984.50000000012 807912.00000000012 977158.50000000012 9498.7099609375018 45.000000000000007 441592.00000000006 66.000000000000014 57.000000000000007 15.000000000000002 4.5000000000000009 39.000000000000007 51.000000000000007 45.000000000000007 21.000000000000004 7.5000000000000009 27.000000000000004
decision_type=2 10 10 10 10 10 8 8 10 2 10 2 2 2 2 2 2 2 2 2 2
left_child=1 2 3 5 -5 10 9 -8 11 -2 13 12 15 14 -1 -9 17 -17 -15 -16 -20
right_child=6 -3 -4 4 -6 -7 7 8 -10 -11 -12 -13 -14 18 19 16 -18 -19 20 -21 -22
leaf_value=-0.02433412275752243 -0.00026773939961972443 -0.059174333287007885 0.041242502589483525 -0.10080346308781632 0.0067618693411350258 0.050555705759325067 -0.061818129236676872 -0.019261244844113078 0.077865957017987972 0.080006982999689447 -0.056114665809131804 -0.010619910539866523 0.062909462818732637 -0.030386756658554077 0.032086132135656142 0.0025957931310702596 -0.017119877528527689 0.041704093602796394 -0.0051091356646446959 0.012583428655945979 -0.0090790050414701305
leaf_weight=49 23 33 37 28 20 32 21 28 25 34 21 58 26 45 27 39 29 24 21 43 48
leaf_count=49 23 33 37 28 20 32 21 28 25 34 21 58 26 45 27 39 29 24 21 43 48
internal_value=0.000110365 -0.0108171 -0.00651579 -0.0118064 -0.0559846 -0.00439186 0.0144905 0.00693801 0.0132432 0.0476154 -0.0113144 0.0053237 0.0116575 -0.0072766 0.00180707 0.000552857 0.00658324 0.0174942 -0.0167587 0.0201059 -0.00787078
internal_weight=711 404 371 334 48 286 307 250 229 57 254 204 146 233 119 120 92 63 114 70 69
internal_count=711 404 371 334 48 286 307 250 229 57 254 204 146 233 119 120 92 63 114 70 69
is_linear=0
shrinkage=0.05


Tree=31
num_leaves=21
num_cat=0
split_feature=0 3 3 3 7 3 0 0 0 0 1 0 0 0 3 0 1 0 0 0
split_gain=40.3329 30.3355 33.8403 39.4952 25.4277 24.7617 15.4108 29.6269 13.0838 24.6935 18.4943 10.4898 16.179 4.99144 4.74127 2.59456 0.637025 0.161961 0.0507667 0.0220646
threshold=33.000000000000007 13654.300292968752 11322.250000000002 8406.5800781250018 336799.50000000006 12810.699707031252 15.000000000000002 4.5000000000000009 66.000000000000014 57.000000000000007 9.0000000000000018 51.000000000000007 45.000000000000007 21.000000000000004 9596.9951171875018 78.000000000000014 4.5000000000000009 39.000000000000007 27.000000000000004 1.0000000180025095e-35
decision_type=2 10 10 10 8 10 2 2 2 2 2 2 2 2 10 2 2 2 2 2
left_child=1 2 3 6 -2 8 7 19 9 10 11 12 17 -8 -5 -10 -9 -6 -15 -1
right_child=4 -3 -4 14 5 -7 13 16 15 -11 -12 -13 -14 18 -16 -17 -18 -19 -20 -21
leaf_value=-0.019331666609893244 0.063179028934488693 -0.056215617060661319 0.039180378857496624 -0.071778831984847788 0.0070839534740190259 0.063208213467150928 -0.030250067296235458 0.020414321856065232 -0.028874773709546955 0.048587126425794658 -0.036225227773189546 -0.016263884973937069 0.046209213156800939 -0.011150316850227469 -0.039904284477233889 -0.0072627358865447163 0.028707072623074054 0.0024660034821583675 -0.0086250558495521556 -0.021205240533207406
leaf_weight=30 24 33 37 20 37 20 46 55 21 37 25 29 34 34 28 41 40 39 48 33
leaf_count=30 24 33 37 20 37 20 46 55 21 37 25 29 34 34 28 41 40 39 48 33
internal_value=0.000104846 -0.0102763 -0.00619 -0.0112161 0.013766 0.00957546 -0.00417227 0.00627435 0.00549693 0.0116907 0.00336653 0.0104873 0.0175399 -0.0170673 -0.0531853 -0.0145829 0.023906 0.00471422 -0.00967212 -0.0203131
internal_weight=711 404 371 334 307 283 286 158 263 201 164 139 110 128 48 62 95 76 82 63
internal_count=711 404 371 334 307 283 286 158 263 201 164 139 110 128 48 62 95 76 82 63
is_linear=0
shrinkage=0.05


Tree=32
num_leaves=23
num_cat=0
split_feature=0 3 0 1 7 3 3 0 3 3 3 1 0 1 0 0 0 0 0 3 0 0
split_gain=36.9663 26.8633 17.1913 31.2763 22.9485 22.3475 20.0525 24.5433 22.6039 13.9048 21.9315 14.1973 7.99114 2.95664 5.71769 2.82757 1.46739 1.36044 3.29185 1.03458 0.771568 0.595681
threshold=4.5000000000000009 12416.100097656252 33.000000000000007 9.0000000000000018 336799.50000000006 12810.699707031252 12456.850097656252 15.000000000000002 9991.7548828125018 7202.4550781250009 10322.199707031252 9.0000000000000018 45.000000000000007 4.5000000000000009 7.5000000000000009 21.000000000000004 39.000000000000007 66.000000000000014 78.000000000000014 1.0000000180025095e-35 1.0000000180025095e-35 27.000000000000004
decision_type=2 8 2 2 8 10 8 2 10 10 10 2 2 2 2 2 2 2 2 10 2 2
left_child=1 -1 3 6 -4 9 8 13 -2 11 -11 12 16 14 -8 -9 -6 -13 -19 -5 -3 -17
right_child=2 20 4 19 5 -7 7 15 -10 10 -12 17 -14 -15 -16 21 -18 18 -20 -21 -22 -23
leaf_value=-0.076782961731607272 -0.00037578830122947696 -0.010125736556137386 0.060020078097780552 -0.036860312819480899 0.017677598733168383 0.060047802068293105 -0.012208471695582073 -0.028017342338959379 0.069115296785127039 -0.055670031634244055 0.015766055813236608 0.0035200382913312604 0.03326987040730623 0.027241254904690912 0.020300622676548207 -0.018249582392828808 0.0023427074536299095 -0.025908999778330329 -0.00095911081641530385 -0.052942776009440418 -0.020144977668921153 -0.0090370358938866475
leaf_weight=22 25 46 24 20 26 20 21 48 22 22 21 31 65 34 38 28 39 20 39 20 33 47
leaf_count=22 25 46 24 20 26 20 21 48 22 22 21 31 65 34 38 28 39 20 39 20 33 47
internal_value=9.96044e-05 -0.0279187 0.00473871 -0.00371034 0.0130777 0.00909669 0.00255448 -0.00388571 0.032152 0.00522208 -0.0207826 0.0103048 0.0208733 0.0154973 0.00872959 -0.0185411 0.00847666 -0.00496071 -0.0094167 -0.0449015 -0.014311 -0.0124764
internal_weight=711 101 610 303 307 283 263 216 47 263 43 220 130 93 59 123 65 90 59 40 79 75
internal_count=711 101 610 303 307 283 263 216 47 263 43 220 130 93 59 123 65 90 59 40 79 75
is_linear=0
shrinkage=0.05


Tree=33
num_leaves=22
num_cat=0
split_feature=0 3 0 1 3 3 3 3 3 0 0 0 0 0 0 1 0 0 0 0 0
split_gain=33.3621 24.2441 15.9026 32.5501 36.2653 77.147 35.5362 30.6259 25.4132 20.4502 14.0392 12.4802 9.47475 3.64907 3.54726 3.46065 2.80034 0.819929 0.69634 0.00521022 0.00067153
threshold=4.5000000000000009 12416.100097656252 57.000000000000007 9.0000000000000018 13379.550292968752 11218.000000000002 8701.3950195312518 13909.200195312502 9376.2197265625018 15.000000000000002 27.000000000000004 66.000000000000014 27.000000000000004 51.000000000000007 33.000000000000007 4.5000000000000009 7.5000000000000009 78.000000000000014 1.0000000180025095e-35 39.000000000000007 21.000000000000004
decision_type=2 8 2 2 8 10 10 8 10 2 2 2 2 2 2 2 2 2 2 2 2
left_child=1 -1 3 4 5 6 -2 -4 12 15 20 -9 -5 14 -12 16 -6 -13 -3 -16 -11
right_child=2 18 7 8 9 -7 -8 11 -10 10 13 17 -14 -15 19 -17 -18 -19 -20 -21 -22
leaf_value=-0.072943813692439685 0.05496547045186162 -0.0096194510145679781 -0.033895047789528253 -0.032070400601341607 -0.0038287915661931039 0.10143905014827335 -0.027757676771363701 0.057684107892441029 -0.065115085244178778 -0.027336702009905942 -0.0085851847808411774 0.012077654457905075 0.01235827138381345 -0.017114185002343407 0.0090426391568677184 0.03159654817797921 0.019285593534770766 0.023945427109855554 -0.019137726678992762 0.0082194285957436827 -0.027650827721313193
leaf_weight=22 20 46 21 21 20 29 37 33 30 46 47 22 28 29 29 33 38 43 33 57 27
leaf_count=22 20 46 21 21 20 29 37 33 30 46 47 22 28 29 29 33 38 43 33 57 27
internal_value=9.46234e-05 -0.0265228 0.00450177 0.000527372 0.00616466 0.0350466 0.00126799 0.0209003 -0.0288721 -0.00145451 -0.00924737 0.0326422 -0.00668259 -0.00104365 0.00246045 0.0186699 0.0113151 0.0199286 -0.0135954 0.00849702 -0.0274529
internal_weight=711 101 610 491 412 86 57 119 79 326 235 98 49 162 133 91 58 65 79 86 73
internal_count=711 101 610 491 412 86 57 119 79 326 235 98 49 162 133 91 58 65 79 86 73
is_linear=0
shrinkage=0.05


Tree=34
num_leaves=22
num_cat=0
split_feature=4 0 7 4 3 3 3 3 4 4 4 4 0 1 0 0 0 0 0 0 0
split_gain=33.0923 33.4673 35.9933 40.5223 36.272 22.9677 26.3843 26.8794 43.8639 41.4966 26.8666 21.3844 15.4029 11.1145 9.08832 11.3983 7.17535 5.38612 1.34432 1.13408 0.0369273
threshold=462489.50000000006 33.000000000000007 336799.50000000006 1095355.0000000002 11158.650390625002 13654.300292968752 12330.050292968752 8406.5800781250018 871969.00000000012 578225.50000000012 792723.00000000012 1015980.0000000001 39.000000000000007 9.0000000000000018 10.500000000000002 4.5000000000000009 51.000000000000007 27.000000000000004 78.000000000000014 7.5000000000000009 21.000000000000004
decision_type=8 2 8 10 8 10 10 10 10 10 10 8 2 2 2 2 2 2 2 2 2
left_child=-1 5 -3 4 -4 6 7 9 -9 14 -11 -6 -13 16 15 -2 -14 20 -15 -17 -16
right_child=1 2 3 -5 11 -7 -8 8 -10 10 -12 12 13 18 17 19 -18 -19 -20 -21 -22
leaf_value=0.063494767993688583 -0.018017706494120992 0.07255647040226243 -0.059360367059707646 0.072786639675143219 0.04585980614026388 -0.051156386292793538 0.045481952821666546 -0.077734490909746712 0.0070864995320638023 0.08371494486927987 0.0017597202584147453 -0.034535344331352795 0.030420387506484986 -0.015606478835855211 -0.028754411917179826 0.0081831839467797953 0.0032094517207526146 -0.0073055224493145943 -0.0021084272469847633 0.02283460807800293 -0.026454616213838263
leaf_weight=20 51 22 23 21 30 33 22 35 27 20 20 27 50 35 64 28 47 48 39 25 24
leaf_count=20 51 22 23 21 30 33 22 35 27 20 20 27 50 35 64 28 47 48 39 25 24
internal_value=8.98927e-05 -0.00174527 0.0110416 0.0060661 0.000483903 -0.0112146 -0.00759352 -0.0110077 -0.0407963 -0.00441169 0.0427373 0.00652082 0.000560373 0.0061018 -0.0122699 -0.00114335 0.0172357 -0.0207784 -0.00849264 0.0150942 -0.0281272
internal_weight=711 691 294 272 251 397 364 342 62 280 40 228 198 171 240 104 97 136 74 53 88
internal_count=711 691 294 272 251 397 364 342 62 280 40 228 198 171 240 104 97 136 74 53 88
is_linear=0
shrinkage=0.05


Tree=35
num_leaves=21
num_cat=0
split_feature=2 3 4 4 1 1 4 4 3 3 4 2 2 2 2 1 2 2 1 2
split_gain=53.8405 35.9107 53.9991 32.0656 30.0056 18.5255 14.2083 19.7114 102.967 81.2858 45.3298 8.95807 13.1357 8.1115 3.72668 3.69758 1.4802 0.837604 0.652171 0.55291
threshold=27.000000000000004 10185.399902343752 857782.00000000012 691579.00000000012 9.0000000000000018 9.0000000000000018 1214865.0000000002 871969.00000000012 13379.550292968752 11218.000000000002 578225.50000000012 15.000000000000002 7.5000000000000009 90.000000000000014 66.000000000000014 4.5000000000000009 45.000000000000007 39.000000000000007 1.0000000180025095e-35 78.000000000000014
decision_type=2 10 10 8 2 2 10 10 8 8 10 2 2 2 2 2 2 2 2 2
left_child=4 3 -3 -2 6 16 7 9 -9 -1 11 12 15 14 -7 18 17 -5 -11 -16
right_child=1 2 -4 5 -6 13 -8 8 -10 10 -12 -13 -14 -15 19 -17 -18 -19 -20 -21
leaf_value=-0.092184163450167111 0.076612654522709225 -0.080626043304800998 0.016749396515744072 0.024526454354910292 -0.058440997120406894 -0.024141765488632796 -0.051122278412804013 0.081103135906159876 -0.059511859548966518 -0.0078172275424003602 0.049052346210394587 0.0024976818792281615 -0.042705160481008614 0.025732830837368964 0.0042266891054485159 0.0093605668771834603 0.031125161214731634 0.014716656878590584 -0.018971924895518705 -0.0067367878135131763
leaf_weight=29 23 24 35 68 36 29 20 30 23 20 35 62 44 20 23 21 64 32 38 23
leaf_count=29 23 24 35 68 36 29 20 30 23 20 35 62 44 20 23 21 64 32 38 23
internal_value=-0.00160592 0.0126125 -0.022861 0.0200342 -0.0151491 0.0150099 -0.010309 -0.00760617 0.0200815 -0.0134995 -0.00312747 -0.0129993 -0.0208108 -0.00255986 -0.0101046 -0.00861653 0.0251875 0.0213873 -0.0151255 -0.00125505
internal_weight=699 341 59 282 358 259 322 302 53 249 220 185 123 95 75 79 164 100 58 46
internal_count=699 341 59 282 358 259 322 302 53 249 220 185 123 95 75 79 164 100 58 46
is_linear=0
shrinkage=0.05


Tree=36
num_leaves=21
num_cat=0
split_feature=0 4 3 4 1 4 1 0 0 4 4 3 3 4 0 0 0 0 0 0
split_gain=48.591 33.9846 62.4556 108.708 27.0801 23.2944 38.9274 15.1552 13.3981 28.0888 27.0075 79.7666 24.1042 30.2966 10.872 15.4767 4.74971 2.73593 2.51123 0.509386
threshold=27.000000000000004 578225.50000000012 9721.4702148437518 871969.00000000012 9.0000000000000018 842348.00000000012 9.0000000000000018 90.000000000000014 1.0000000180025095e-35 779202.00000000012 871969.00000000012 11420.049804687502 11660.400390625002 819785.00000000012 7.5000000000000009 15.000000000000002 78.000000000000014 33.000000000000007 4.5000000000000009 51.000000000000007
decision_type=2 8 10 10 2 8 2 2 2 10 10 10 8 8 2 2 2 2 2 2
left_child=4 -2 5 -4 8 -3 17 16 9 -1 12 -12 -10 -14 18 -16 -8 -7 -15 -19
right_child=1 2 3 -5 -6 6 7 -9 10 -11 11 -13 13 14 15 -17 -18 19 -20 -21
leaf_value=0.0021190914724554337 0.070674476481002321 0.06593835554693056 -0.13370892636477946 0.012419285029172897 -0.055518946672479308 0.018555758346100244 -0.016074536575211417 0.024446182698011399 -0.064340114668011664 -0.061690777040305823 0.098956603082743566 -0.032851614244282248 0.036887627433646812 -0.0085466210441342717 -0.048890993389345355 -0.008739348607403892 -0.044872350041710196 0.035939178669477927 0.012643165941591617 0.02892004714711853
leaf_weight=35 23 23 20 35 36 49 45 20 20 34 22 24 33 29 42 56 21 59 27 46
leaf_count=35 23 23 20 35 36 49 45 20 20 34 22 24 33 29 42 56 21 59 27 46
internal_value=-0.00152562 0.0119818 0.00773678 -0.0407182 -0.0143917 0.01787 0.0132634 -0.0136831 -0.00979358 -0.0293235 -0.00446726 0.0301871 -0.0121682 -0.00658834 -0.0159046 -0.0259472 -0.0252375 0.0283115 0.00166988 0.0328641
internal_weight=699 341 318 55 358 263 240 86 322 69 253 46 207 187 154 98 66 154 56 105
internal_count=699 341 318 55 358 263 240 86 322 69 253 46 207 187 154 98 66 154 56 105
is_linear=0
shrinkage=0.05


Tree=37
num_leaves=22
num_cat=0
split_feature=0 3 0 1 3 0 3 3 3 3 1 0 0 0 0 1 0 0 0 0 0
split_gain=43.8534 28.6137 48.1577 24.4398 17.8794 12.0918 24.8181 16.966 15.2118 13.8303 11.8684 5.79253 3.80851 2.22762 8.61384 1.60238 0.736163 0.658595 0.597471 1.19104 0.0669934
threshold=27.000000000000004 10185.399902343752 45.000000000000007 9.0000000000000018 1.0000000180025095e-35 1.0000000180025095e-35 12456.850097656252 12416.100097656252 15778.050292968752 9721.4702148437518 9.0000000000000018 90.000000000000014 51.000000000000007 10.500000000000002 7.5000000000000009 4.5000000000000009 39.000000000000007 66.000000000000014 15.000000000000002 21.000000000000004 78.000000000000014
decision_type=2 10 2 2 10 2 8 8 8 10 2 2 2 2 2 2 2 2 2 2 2
left_child=3 4 -3 5 10 7 9 -1 -8 -7 12 17 16 14 15 -10 -2 -12 -15 -20 -19
right_child=1 2 -4 -5 -6 6 8 -9 13 -11 11 -13 -14 18 -16 -17 -18 20 19 -21 -22
leaf_value=-0.065341347526936308 0.020202421966721031 0.042798212207853792 -0.052631080761933936 -0.052742999854187171 0.055193962002622665 -0.0029726410657167435 -0.053159042932093149 -0.011458000152682266 -0.0085895859398121052 0.051885032212292709 -0.0013701340247844829 0.023223878145217897 0.03373071177241703 0.0045016968479523294 -0.037188854813575749 0.0082603712876637772 0.01195846954981486 -0.009100294609864553 -0.0090854984262715207 0.0046548342332243921 -0.013048496262424374
leaf_weight=21 68 20 39 36 29 20 20 48 43 27 29 20 48 26 26 21 45 21 46 24 22
leaf_count=21 68 20 39 36 29 20 20 48 43 27 29 20 48 26 26 21 45 21 46 24 22
internal_value=-0.00144934 0.0113827 -0.0202822 -0.0136721 0.0180077 -0.00930391 -0.00424389 -0.0278573 -0.011724 0.0285413 0.0137452 -0.000580755 0.0219315 -0.00726864 -0.0129199 -0.00306069 0.0169194 -0.00719315 -0.00197055 -0.00437453 -0.0111203
internal_weight=699 341 59 358 282 322 253 69 206 47 253 92 161 186 90 64 113 72 96 70 43
internal_count=699 341 59 358 282 322 253 69 206 47 253 92 161 186 90 64 113 72 96 70 43
is_linear=0
shrinkage=0.05


Tree=38
num_leaves=21
num_cat=0
split_feature=0 4 3 4 1 4 1 4 3 4 3 0 0 4 0 0 0 0 0 0
split_gain=39.5777 30.4009 52.7241 98.1764 22.0569 20.1635 33.1786 14.1198 43.9772 63.5652 52.8564 33.3338 12.8552 12.843 4.11709 3.84898 8.2446 2.37936 1.21932 0.576844
threshold=27.000000000000004 578225.50000000012 9721.4702148437518 871969.00000000012 9.0000000000000018 842348.00000000012 9.0000000000000018 683128.50000000012 10848.550292968752 819785.00000000012 13379.550292968752 10.500000000000002 90.000000000000014 914832.00000000012 78.000000000000014 7.5000000000000009 15.000000000000002 33.000000000000007 4.5000000000000009 51.000000000000007
decision_type=2 8 10 10 2 8 2 8 8 8 10 2 2 10 2 2 2 2 2 2
left_child=4 -2 5 -4 7 -3 17 11 -9 -10 13 -1 14 15 -8 18 -17 -7 -11 -19
right_child=1 2 3 -5 -6 6 12 8 9 10 -12 -13 -14 -15 -16 16 -18 19 -20 -21
leaf_value=-0.077295064278270889 0.066325474303701656 0.060830429973809622 -0.12609292812645437 0.012776233085564205 -0.050105850771069528 0.016617851810795919 -0.015164809756808811 0.057408950363214195 0.074526252374053012 -0.0014965773094445468 -0.090312346897047507 0.0061112225651741032 0.022062684297561648 -0.041206452995538712 -0.041976306591892526 -0.02825848002766454 0.00063283368945121765 0.033233634976007169 0.011785209399682505 0.025764180509292564
leaf_weight=23 23 23 20 35 36 49 45 26 20 48 23 25 20 29 21 43 58 59 27 46
leaf_count=23 23 23 20 35 36 49 45 26 20 48 23 25 20 29 21 43 58 59 27 46
internal_value=-0.00137687 0.0108136 0.0067986 -0.0377216 -0.0129885 0.0161089 0.0118231 -0.00883871 -0.00445642 -0.0109423 -0.0184395 -0.0338543 -0.0130542 -0.0103758 -0.0236957 -0.00529571 -0.0116674 0.0257157 0.00328487 0.0299613
internal_weight=699 341 318 55 358 263 240 322 274 248 228 48 86 205 66 176 101 154 75 105
internal_count=699 341 318 55 358 263 240 322 274 248 228 48 86 205 66 176 101 154 75 105
is_linear=0
shrinkage=0.05


Tree=39
num_leaves=21
num_cat=0
split_feature=2 4 3 4 1 4 1 4 4 4 3 3 4 2 2 2 2 2 2 2
split_gain=35.7189 27.4368 47.5835 88.6042 19.9063 18.1975 29.9436 12.7518 12.8757 14.2914 84.6316 65.6632 68.157 13.4464 12.3672 11.6018 3.71567 2.14738 0.59541 0.520602
threshold=27.000000000000004 578225.50000000012 9721.4702148437518 871969.00000000012 9.0000000000000018 842348.00000000012 9.0000000000000018 578225.50000000012 1214865.0000000002 871969.00000000012 13379.550292968752 11218.000000000002 819785.00000000012 7.5000000000000009 15.000000000000002 90.000000000000014 78.000000000000014 33.000000000000007 4.5000000000000009 51.000000000000007
decision_type=2 8 10 10 2 8 2 8 10 10 8 8 8 2 2 2 2 2 2 2
left_child=4 -2 5 -4 7 -3 17 -1 9 11 -11 -9 -13 18 -15 16 -8 -7 -14 -19
right_child=1 2 3 -5 -6 6 15 8 -10 10 -12 12 13 14 -16 -17 -18 19 -20 -21
leaf_value=-0.044272398171217552 0.063009197945180159 0.057788903492948289 -0.11978828251361846 0.012137422135898045 -0.047600556915212013 0.015786961633331924 -0.01440656903717253 -0.083088142252885383 -0.044390292279422289 0.07583133344848951 -0.051650892522024074 0.068257197296043168 0.0017224372819412586 -0.043825663289143925 -0.0079334976683769903 0.020959548875689508 -0.039877490867816272 0.031571954311960838 0.011195951369073656 0.024475973099470139
leaf_weight=23 23 23 20 35 36 49 45 26 20 30 23 32 43 42 56 20 21 59 27 46
leaf_count=23 23 23 20 35 36 49 45 26 20 30 23 32 43 42 56 20 21 59 27 46
internal_value=-0.00130803 0.0102729 0.00645867 -0.0358356 -0.0123391 0.0153035 0.011232 -0.00839677 -0.00563711 -0.0028591 0.0205089 -0.0083392 0.00137816 -0.0113607 -0.0233159 -0.0124015 -0.022511 0.0244299 0.00537651 0.0284632
internal_weight=699 341 318 55 358 263 240 322 299 279 53 226 200 168 98 86 66 154 70 105
internal_count=699 341 318 55 358 263 240 322 299 279 53 226 200 168 98 86 66 154 70 105
is_linear=0
shrinkage=0.05


end of trees

feature_importances:
visit_month=362
prot_O00391=153
prot_P05067=149
visit_gap=85
months_since_first=61
prot_O00391_delta=7
prot_P05067_delta=6

parameters:
[boosting: gbdt]
[objective: regression]
[metric: l1,rmse]
[tree_learner: serial]
[device_type: cpu]
[data_sample_strategy: bagging]
[data: ]
[valid: ]
[num_iterations: 100]
[learning_rate: 0.05]
[num_leaves: 31]
[num_threads: 2]
[seed: 0]
[deterministic: 0]
[force_col_wise: 0]
[force_row_wise: 0]
[histogram_pool_size: -1]
[max_depth: -1]
[min_data_in_leaf: 20]
[min_sum_hessian_in_leaf: 0.001]
[bagging_fraction: 0.8]
[pos_bagging_fraction: 1]
[neg_bagging_fraction: 1]
[bagging_freq: 5]
[bagging_seed: 3]
[bagging_by_query: 0]
[feature_fraction: 0.9]
[feature_fraction_bynode: 1]
[feature_fraction_seed: 2]
[extra_trees: 0]
[extra_seed: 6]
[early_stopping_round: 0]
[early_stopping_min_delta: 0]
[first_metric_only: 0]
[max_delta_step: 0]
[lambda_l1: 0]
[lambda_l2: 0]
[linear_lambda: 0]
[min_gain_to_split: 0]
[drop_rate: 0.1]
[max_drop: 50]
[skip_drop: 0.5]
[xgboost_dart_mode: 0]
[uniform_drop: 0]
[drop_seed: 4]
[top_rate: 0.2]
[other_rate: 0.1]
[min_data_per_group: 100]
[max_cat_threshold: 32]
[cat_l2: 10]
[cat_smooth: 10]
[max_cat_to_onehot: 4]
[top_k: 20]
[monotone_constraints: ]
[monotone_constraints_method: basic]
[monotone_penalty: 0]
[feature_contri: ]
[forcedsplits_filename: ]
[refit_decay_rate: 0.9]
[cegb_tradeoff: 1]
[cegb_penalty_split: 0]
[cegb_penalty_feature_lazy: ]
[cegb_penalty_feature_coupled: ]
[path_smooth: 0]
[interaction_constraints: ]
[verbosity: -1]
[saved_feature_importance_type: 0]
[use_quantized_grad: 0]
[num_grad_quant_bins: 4]
[quant_train_renew_leaf: 0]
[stochastic_rounding: 1]
[linear_tree: 0]
[max_bin: 255]
[max_bin_by_feature: ]
[min_data_in_bin: 3]
[bin_construct_sample_cnt: 200000]
[data_random_seed: 1]
[is_enable_sparse: 1]
[enable_bundle: 1]
[use_missing: 1]
[zero_as_missing: 0]
[feature_pre_filter: 1]
[pre_partition: 0]
[two_round: 0]
[header: 0]
[label_column: ]
[weight_column: ]
[group_column: ]
[ignore_column: ]
[categorical_feature: ]
[forcedbins_filename: ]
[precise_float_parser: 0]
[parser_config_file: ]
[objective_seed: 5]
[num_class: 1]
[is_unbalance: 0]
[scale_pos_weight: 1]
[sigmoid: 1]
[boost_from_average: 1]
[reg_sqrt: 0]
[alpha: 0.9]
[fair_c: 1]
[poisson_max_delta_step: 0.7]
[tweedie_variance_power: 1.5]
[lambdarank_truncation_level: 30]
[lambdarank_norm: 1]
[label_gain: ]
[lambdarank_position_bias_regularization: 0]
[eval_at: ]
[multi_error_top_k: 1]
[auc_mu_weights: ]
[num_machines: 1]
[local_listen_port: 12400]
[time_out: 120]
[machine_list_filename: ]
[machines: ]
[gpu_platform_id: -1]
[gpu_device_id: -1]
[gpu_use_dp: 0]
[num_gpu: 1]

end of parameters

pandas_categorical:[]
